2144 50
衣服 0.260891 -0.192539 -0.002844 -0.314494 0.760109 0.331795 0.184972 0.304236 -1.284670 -0.049633 -0.536556 0.223358 -0.252064 0.209907 0.186400 -0.472056 0.851825 0.039362 0.436882 0.140430 0.389912 0.710673 0.331406 -0.120319 -1.044472 -0.555132 0.475761 -0.257010 -0.387329 0.776109 0.237744 0.209866 -0.094002 -0.423088 0.054413 0.288725 -0.547252 -0.590023 0.099760 0.047381 -0.472896 -0.360781 -0.171458 0.509661 0.642051 0.060161 -0.704371 -0.210569 -0.445264 -0.951136
不错 -0.008666 -0.348814 0.535169 -0.673135 1.030452 0.232584 0.285576 0.289908 -0.866662 -0.250928 -0.217056 -0.405570 -0.866177 0.491144 -0.336436 0.066724 0.275744 0.362434 0.779673 -0.336023 -0.319878 0.389822 0.217655 0.086662 -0.837100 -0.179650 0.287118 -0.482104 -0.086653 -0.287163 0.350161 0.127316 0.850023 -0.289783 0.304552 0.558692 -0.281850 -0.159653 -0.141334 0.488175 -0.473722 -0.524575 0.101736 0.361883 0.192781 -0.545880 -0.703644 0.022421 -0.441034 -0.271192
质量 0.665337 -0.458658 0.532883 -0.336151 0.985266 -0.056108 -0.010355 -0.049576 -0.832425 -0.287902 -0.321458 0.369845 -0.343713 0.293722 0.122230 -0.267524 -0.127257 0.098266 0.187336 -0.077785 0.122572 0.495405 0.813897 -0.210162 -0.551701 -0.246785 0.114494 -0.856719 -0.493656 -0.261394 0.057776 -0.380048 0.462041 -0.584506 0.313295 -0.032639 -0.787256 -0.522115 -0.567009 0.555355 0.256627 0.177555 0.112601 0.003838 0.713123 -0.063206 -0.823277 0.500355 -0.791496 0.267912
喜欢 0.471504 -0.598132 0.411788 -0.716490 0.453432 0.483361 -0.147088 0.611872 -0.764053 -0.121759 0.026678 -0.619531 -0.724246 -0.015543 -0.144421 -0.171404 0.527518 0.130970 0.712326 -0.091379 0.528019 0.250193 0.788000 0.168647 -0.406436 -0.267159 -0.261919 -0.568211 -0.691645 -0.306522 0.056134 0.058462 0.572948 -0.304281 -0.460916 -0.298519 0.566524 -0.271947 -0.321999 0.101652 0.122833 -0.012929 -0.314986 0.660182 0.163160 0.108070 -0.640185 0.216658 -0.817496 0.145097
舒服 -0.180130 -0.737735 0.492549 -0.627434 0.838746 0.141237 -0.306241 0.826122 -1.637280 -0.037587 -0.782957 -0.082161 -1.045431 0.903219 0.465754 0.194768 0.164371 0.844753 1.504531 -0.158548 0.443406 0.707272 0.559169 0.149188 -0.914981 -0.271287 0.499971 -0.582466 0.677435 0.355023 1.191721 -0.042701 0.394856 -0.205228 -0.004851 0.911376 0.013007 -0.743319 0.148339 0.302119 -0.736479 0.060672 0.708233 0.349262 0.022211 -0.900006 -1.342136 0.629241 -0.047961 -1.007434
挺 0.014359 -0.380191 0.354087 -0.237205 0.852947 -0.031399 -0.119775 0.856984 -1.106933 0.180167 -0.675596 -0.108666 -0.459637 0.440890 -0.374435 -0.410216 0.359163 0.283004 0.631872 -0.060393 -0.066205 0.575929 0.549734 -0.279129 -0.666314 0.091563 0.413837 -0.379253 -0.098368 0.274679 0.359396 0.041763 0.506690 -0.469790 -0.206514 0.066046 -0.682724 -0.516338 -0.012038 0.042444 -0.403083 -0.317765 0.075052 -0.019080 0.227001 -0.281547 -0.497253 0.183563 -0.317957 -0.244081
穿 -1.224736 0.014852 -0.351352 -0.653201 0.210669 -0.240478 -0.554639 1.635313 -1.206828 0.045184 -0.728448 -0.039094 0.557587 0.604640 -1.119693 -0.132732 0.632576 0.111713 -0.375020 -0.508307 -0.026958 0.911359 1.292867 -0.216546 -0.143536 0.289742 -0.287877 0.264062 -0.373798 0.181021 -0.007525 -0.086558 0.050026 -0.134985 -0.884544 -0.909277 -0.566423 -0.346753 -0.330361 -0.222203 -0.403170 -0.548527 -0.801444 -0.099840 -0.756111 -0.246597 0.411994 -0.343215 -0.678572 -0.164722
买 0.287026 -0.190457 -0.213271 -1.100954 -0.233568 -0.185616 0.832934 0.213773 -0.351570 -0.261602 0.557490 -0.150199 0.282970 0.406111 0.169102 -0.792633 0.080376 0.267488 -0.107789 -0.699539 -1.238939 1.059566 0.768863 1.150438 -0.213085 0.084764 -0.890787 0.191474 -1.211615 -0.940240 0.400090 -0.659227 0.523832 -0.479778 -0.495026 -1.418773 -0.752112 0.572698 -1.119186 0.463890 -0.029060 1.011424 -1.301265 0.201336 -0.811751 0.559719 -0.315631 0.243838 -0.949545 -1.609236
收到 0.260193 -0.921885 0.481240 -1.565210 0.847988 -0.418803 0.179267 0.395699 -0.571792 0.607674 -0.341837 -0.429808 -0.622719 0.939724 -0.664129 0.821750 -0.494746 0.879039 -0.219837 0.044534 0.410450 -0.540933 -0.577360 -0.450723 -0.990849 -0.307324 0.418198 -0.230304 -0.505604 -1.033234 -0.037244 -1.280751 1.257601 -0.879185 0.252609 -0.181891 -0.807516 -0.121589 0.639121 1.290787 -0.397224 -0.139657 -0.029542 0.653610 0.379455 0.309014 -1.054051 0.731984 -0.499043 0.612491
好看 0.427476 -0.423332 0.989140 -0.402912 0.371588 0.186350 -0.701148 1.183849 -0.948494 -0.395231 0.138869 -0.458296 -0.154357 0.261706 0.316545 -0.210469 0.817366 -0.055860 1.601220 -0.536629 0.371173 0.340896 0.489432 0.159995 -0.541374 -0.307965 -0.243126 -0.524554 -0.580641 -0.174817 0.516914 0.004505 1.302595 -0.452641 -0.569310 -0.299466 0.025777 -0.513848 -0.818032 -0.014034 -0.133151 -0.235696 0.128764 0.168239 0.098731 -0.599021 -0.653109 0.276191 -0.087702 0.201160
面料 0.094773 0.124989 0.214300 -0.410799 1.486204 -0.306158 -0.100304 0.736280 -1.643612 -0.114535 -0.956849 0.353208 -0.735062 0.900299 -0.370811 -0.229882 -0.038501 -0.339338 0.369416 0.014443 0.114382 0.811818 1.122016 -0.588253 -0.750038 -0.142624 0.475687 -0.788715 0.385817 0.593883 -0.069276 0.055875 0.286380 -0.177755 0.137426 0.329235 -0.600906 -0.803487 -0.302032 0.808138 0.364755 -0.406434 0.556854 0.353188 0.623859 -1.062225 -0.594639 0.305217 -1.132098 0.943531
满意 0.406078 -0.611093 0.001379 0.114199 1.579113 -0.417423 0.308328 0.641160 -0.700207 0.303189 -0.899354 -0.247951 -0.854090 0.221100 0.145028 0.409296 -0.347185 0.306945 0.333510 -0.222582 0.713683 0.165801 0.115966 0.250726 -0.329744 -0.157352 0.520963 -0.580820 -0.720400 0.217767 -0.289420 -0.035204 0.716840 -0.376414 0.210138 0.421126 0.571683 0.206023 0.384705 0.863342 -0.181944 0.152079 -0.022066 0.270983 0.078162 0.616710 -0.646302 -0.267534 -0.800698 -0.276301
穿着 -0.286166 0.214742 -0.007085 -0.299292 0.889668 -0.069031 -0.376550 1.164547 -1.307290 0.229852 -1.170688 -0.436981 -0.425267 0.456257 -1.574073 -0.617847 0.573760 -0.066952 0.345005 0.131231 0.063058 0.952867 1.474897 -0.601087 -0.165810 -0.247727 0.444085 -0.763270 -0.003768 0.364098 0.058036 0.591349 0.360449 0.158513 -0.757030 -0.587624 -0.268673 -0.329711 -0.240835 0.454352 0.205676 -0.495546 -0.199623 -0.107635 0.093210 -0.149638 0.078173 0.401518 -1.215685 0.303307
合适 -0.015288 0.126002 1.233731 0.704888 0.240857 -0.051854 0.002157 -0.297611 -0.916126 0.958048 -1.017879 -0.125534 -0.892042 1.102449 0.285504 -0.455587 0.460393 0.742558 0.916713 -0.995823 0.595263 0.931324 0.461708 -0.126923 -1.378743 -0.534869 1.316279 -1.337829 0.492641 0.475705 -0.388400 -0.686660 0.057898 -0.847905 0.599418 -0.579354 -0.004897 -0.983104 -0.587539 0.371725 -0.277314 0.636127 -0.560862 -0.184213 0.096087 -0.184312 -0.883260 1.388934 -0.872012 -1.142762
宝贝 0.643440 -0.702562 0.002706 -0.698866 1.380965 -0.022149 0.122627 -0.118666 -1.069131 -0.191572 0.071050 0.180126 -0.923752 0.345685 0.387526 -0.252496 0.975134 0.132816 -0.063815 0.206874 0.923971 0.110832 0.260009 -0.789692 -1.473426 -1.095603 0.747874 -0.196543 -0.686842 0.214596 -0.202752 0.081467 -0.331915 -0.715831 -0.043120 0.129772 -0.432141 -0.740778 0.385842 0.771562 -0.223593 -0.095612 -0.317940 0.882898 1.081266 0.694792 -1.211394 0.325458 -0.956374 -0.741531
穿上 -0.385611 -0.234280 0.215052 -0.509652 1.219220 0.032089 -0.229454 0.931231 -1.209607 -0.288638 -0.500994 -0.481691 -0.345387 0.244267 -1.066374 -0.499717 0.868392 0.003150 0.114202 0.052815 0.345572 0.428874 1.381153 -0.418804 -0.449706 -0.331880 0.237711 -0.435670 -0.321206 0.056866 -0.224725 0.592915 0.608976 -0.162534 -1.072646 -0.758859 -0.177284 -0.126848 -0.427355 0.035608 -0.125190 -0.726583 -0.020150 -0.170952 -0.195830 -0.060099 -0.069756 0.090279 -1.131531 0.119852
件 -0.129211 -0.587949 -0.350838 -0.783831 0.050445 1.025941 -0.576598 0.548189 -0.569126 0.344536 0.751718 -0.062658 -0.006096 0.388879 -0.260400 -0.604936 -0.793507 -0.146658 0.214071 -0.119574 -0.535347 0.417535 0.454648 0.794644 0.344815 -0.607746 -1.445227 -0.049939 -1.597634 -0.966276 1.045164 -0.535940 0.781488 -0.606374 0.159266 -0.527203 -0.224853 0.218729 -0.545569 0.075484 -0.249635 1.150244 -1.091344 1.847497 -0.507422 0.685260 -0.082103 -0.095533 -1.234728 -0.941711
次 0.170172 -0.220186 -0.823562 0.421722 2.308689 0.551279 -0.290108 0.716580 -0.230258 1.160031 -0.349992 -0.744909 -0.347102 0.491863 -0.080767 0.945195 -1.496390 -0.628476 0.318369 -0.449328 1.132920 0.357394 -0.147922 1.167293 0.573682 -0.347206 0.071443 -0.712197 -1.817336 0.484270 0.258306 -0.202227 0.995822 -0.968654 1.075194 0.835977 1.608385 1.256438 0.780958 1.238036 -0.304609 1.032870 -0.870594 1.954356 0.113817 0.738380 -0.167983 -0.338729 -2.003381 -0.640505
物流 0.031709 -1.009916 0.751154 0.094360 1.578818 -0.486829 -0.283564 0.280345 -0.516683 -0.037894 -1.619222 0.551761 -0.619532 -0.229831 -0.298220 -0.143620 0.014352 0.475451 0.260732 -0.836551 1.041478 -0.544563 -0.143850 -0.639638 -0.368209 -0.526440 0.937649 -1.228166 -1.139904 -1.107445 0.684384 -0.379096 0.081296 0.449724 0.105384 -0.105760 -0.279919 -0.820391 0.547354 1.030773 -0.160192 0.233982 -0.125852 0.280137 0.453903 0.845688 -0.568810 0.181890 0.191946 -0.318999
颜色 -0.141149 0.355812 0.986824 -0.491133 -0.458632 0.524063 -0.453389 0.471038 -1.077739 0.004766 -1.158002 -0.987634 -0.027280 0.868089 -0.133738 -0.046923 0.087911 0.433526 0.533062 0.343304 0.009761 0.601098 -0.355621 -0.843260 -0.738421 -0.461948 1.129966 -0.443344 -0.910936 0.719485 -0.906699 0.795299 0.326770 -0.786452 -0.123356 -0.726015 -1.248023 -0.800093 -0.515693 -0.148281 0.105686 -0.727245 -0.177398 -0.379869 0.294160 -0.547341 -1.120911 0.646392 -1.179310 0.080158
好评 0.411300 -0.318972 0.274264 0.951603 0.950095 -0.148222 0.435798 0.387627 -0.678488 -0.226529 -1.400073 0.181081 -1.652747 0.759843 0.810952 -0.098689 0.130976 0.669425 0.106547 -0.272119 0.706342 0.480961 -0.234686 -0.013600 0.119058 -0.837507 0.297340 -0.748311 -0.566985 -0.406237 0.055412 -0.411951 0.167291 0.748822 -0.223015 -0.177540 -0.142142 -0.173195 0.667036 0.852495 -0.010001 -0.580700 0.484078 0.435685 0.026334 1.112616 -0.134695 0.392951 -0.221734 0.073575
漂亮 0.451185 -0.646748 0.645293 -0.810319 0.743559 0.007432 -0.284305 0.691302 -0.884445 0.065427 -0.490030 -0.628006 -0.444289 0.362988 -0.025052 -0.101728 0.418561 0.384323 0.981770 -0.129481 0.548169 0.171818 0.455439 0.067458 -0.675110 -0.141622 -0.105875 -0.683694 -0.215036 -0.009880 -0.075731 0.014273 0.973221 -0.497820 -0.178845 -0.006154 0.111087 -0.432666 -0.333388 0.208643 -0.059990 0.059088 0.030770 0.242672 0.081170 -0.321874 -0.974421 0.380516 -0.343263 0.513397
效果 0.785658 0.311490 -0.166769 -1.510258 1.634878 -1.255018 0.549107 0.295080 -0.349416 -1.114695 -0.159320 0.309938 0.957524 0.987785 1.367215 -0.268964 0.487892 -0.997247 1.412489 -0.974770 0.485467 -0.198703 -0.067798 -0.013379 -0.841932 -1.095444 0.614241 -0.391912 -0.256202 -0.501208 1.354994 -0.169581 1.309603 0.185744 0.798245 0.673631 -0.251931 -0.097251 -0.167116 0.491076 -0.228751 -0.771199 -0.444272 0.418779 0.324244 -1.598661 -1.687800 0.078858 -0.625834 0.114398
料子 0.200869 -0.250588 -0.039426 -0.564944 1.007138 -0.156513 -0.303935 0.991595 -1.530354 0.120555 -0.836242 0.459906 -0.314024 0.636809 -0.418623 0.037117 0.260557 0.005453 0.257179 0.232720 0.165847 0.678450 0.918704 -0.828097 -0.513454 0.095903 0.310916 -0.665767 0.020362 0.362920 0.165149 0.055254 0.384015 -0.251596 -0.124473 0.169539 -0.734779 -0.743021 -0.225324 0.236861 0.347232 -0.243683 0.166407 -0.082966 0.573016 -0.790183 -0.411539 0.196197 -0.721664 0.636748
纯棉 0.117491 -0.108751 0.095064 -0.780980 1.320483 -0.009610 0.119668 0.334341 -1.049934 0.232743 -0.887211 -0.271381 -0.568322 0.913996 -0.538462 -0.091922 0.203228 0.092294 0.738294 0.204839 0.066360 0.502966 0.689982 0.088413 -0.923790 -0.017248 0.311888 -0.418673 0.231188 0.571034 0.219831 0.119498 0.299565 -0.484494 0.256282 0.303091 -0.361680 -0.479637 0.065462 0.934164 0.080909 -0.050780 0.088391 0.537626 0.375036 -0.661998 -0.919391 0.717856 -0.874600 0.117179
上身 -0.709663 -1.129658 -0.843642 -0.527161 2.493740 1.321395 0.362805 0.024367 -1.225619 -1.036495 0.496004 0.441700 -1.199809 0.294750 -0.868626 0.614384 0.695560 0.834909 -0.497664 0.330412 0.040470 -0.300969 1.409815 -0.912463 -1.015071 0.459805 0.010144 -1.195373 -0.662279 -0.039213 -0.823169 1.432985 0.998806 -0.277773 -0.458605 -0.293348 -0.105385 0.117199 -0.631589 -0.003647 -0.104089 -0.871768 0.607007 0.439802 -0.167784 -0.833942 0.631570 0.276628 -1.612104 -0.610563
合身 0.126656 -0.319404 0.479356 -0.006127 0.700239 -0.160322 0.113641 0.229281 -0.729655 0.384873 -0.527412 -0.350886 -0.813976 0.808244 0.185740 -0.087281 0.316454 0.455767 1.046690 -0.454040 0.706311 0.538884 0.404551 -0.055696 -0.842494 -0.552984 0.817513 -0.775625 0.146208 0.121782 0.432224 -0.322055 0.542772 -0.452293 0.192433 -0.029081 0.162807 -0.446791 -0.252577 0.610852 -0.320129 0.255239 -0.083942 0.068352 -0.003762 -0.195408 -0.896600 0.820015 -0.544511 -0.532963
购买 0.871930 -1.168402 0.012145 -0.774496 1.363096 -1.020874 1.673919 -0.170451 -0.167026 -1.802977 -1.192490 -0.500304 -1.334058 0.505679 1.110353 -1.428146 0.702485 0.233628 0.898366 -0.239217 -0.776236 0.332090 1.908212 0.844852 -0.197927 0.075434 -0.512242 -0.500312 -0.619619 -0.293997 0.246056 0.656597 0.015890 0.995608 -0.936731 0.062396 0.266249 0.090894 -0.920953 1.633712 0.592333 0.644485 -0.590040 0.104154 -1.454787 0.086158 -0.980736 0.105859 -1.124433 -1.386104
特别 0.264182 -0.933793 0.352630 -0.655797 1.268267 0.273118 -0.157432 0.788420 -1.144839 0.225134 -0.643507 -0.344147 -0.196026 -0.093883 -0.271483 -0.261919 0.408457 0.083618 0.900166 -0.018074 0.868023 -0.140744 0.481772 0.016701 -0.579350 0.054888 0.051936 -0.752145 -0.338642 0.160996 0.320180 0.474634 0.699567 -0.249170 -0.067322 -0.239356 0.376855 -0.728922 -0.197687 -0.156951 0.086951 -0.124455 0.214960 0.531947 0.005449 -0.455742 -0.500565 -0.022807 -0.208935 0.008305
价格 1.558246 -0.831297 -0.713010 0.243743 0.490862 1.214770 1.946548 -0.089833 -0.440519 0.086081 -1.339209 -0.343484 -0.463691 0.254039 -0.040019 -1.227651 0.250643 -0.037418 1.760928 1.153772 0.559259 0.957532 1.760513 0.666544 -1.765837 0.465180 -0.448452 -1.425896 -1.123953 0.678626 0.698912 -0.765944 0.269743 -0.025554 -0.602745 0.793849 -1.228148 0.923636 0.393527 0.884260 -0.075767 -0.152539 -0.410940 0.393029 0.671329 -0.290282 -0.449469 0.213716 0.032084 0.334338
做工 0.162592 0.605644 -0.263994 -0.798456 0.840276 0.328313 0.257386 -0.435138 -1.054420 -0.109443 -2.297595 -0.080368 -0.988152 0.511980 0.443958 0.057922 -0.448437 0.141001 0.028153 0.827692 -0.121315 0.541990 0.915780 -0.009694 -1.030195 0.059373 1.073665 -0.401861 -0.527789 0.854752 -0.200787 0.327737 0.012485 -0.045009 0.970516 0.143064 -1.287261 -0.674652 0.443725 1.474571 0.429971 0.507942 0.623808 0.782486 0.854445 -0.908574 -0.656034 1.177646 -0.976952 0.096692
太 0.056005 -0.642378 0.157759 -0.119556 0.062431 0.611413 0.689866 -0.050517 -0.488885 0.286321 -0.644512 0.145841 0.144571 -0.209121 0.511490 0.071134 -0.091992 0.533876 0.199130 0.176314 0.033659 0.448535 -0.273028 -0.295242 -0.319746 0.517860 0.044702 -0.280327 -1.378986 -0.177560 0.124983 -0.176252 0.090512 -0.333575 0.914616 -0.211498 -1.176965 -0.632409 -0.208962 -0.283522 -0.080305 -0.577168 -0.576578 0.251945 0.622426 -0.329564 -0.180878 -0.525012 0.192124 -0.103677
值得 0.240991 0.112934 0.732461 0.580878 2.371249 1.255544 -0.445679 -0.717160 -0.418715 0.460218 -1.095311 -0.754503 -1.434182 0.405836 -0.176313 -0.603616 0.056380 -0.480297 1.406675 -0.008284 0.320519 0.616760 1.450847 -0.450011 0.369729 -0.706076 -0.427499 -0.823363 -0.519728 -1.417919 0.696055 0.351765 -0.019370 0.212545 1.416218 0.658651 0.316794 0.304675 0.142367 0.916732 0.968408 -0.640761 -0.363322 1.704045 0.839277 -0.296677 -0.244099 0.538765 -1.252660 0.494897
款式 0.675388 -0.074044 0.465833 -0.702721 0.979459 0.380607 -0.079722 0.829101 -1.144147 -0.050999 -0.760426 -0.665844 -0.602965 0.434695 0.047282 -0.389463 0.952436 0.086758 0.719546 0.423734 0.278995 0.168708 0.679752 -0.341308 -0.604589 -0.399288 0.200065 -0.550387 -0.285922 0.463176 -0.106001 0.259003 0.621287 -0.161064 -0.503777 -0.259496 -0.245327 -0.492773 -0.163977 0.071700 0.251331 -0.026195 0.230333 0.272302 -0.007210 -0.408441 -1.008646 0.618373 -0.866847 0.025184
大小 -1.191759 0.304905 0.479849 0.039944 0.974924 -0.544759 0.053374 0.569740 -1.325073 0.664924 -1.586044 -0.733309 -0.858259 0.962448 -1.669327 -0.797329 -0.372779 0.375847 0.667802 0.204638 0.550938 0.808598 1.155336 -0.292540 -1.040190 -0.709773 1.291920 0.265674 -0.596819 0.002753 -0.403094 0.568410 0.622101 -0.636173 -0.754549 0.281909 -0.511950 0.089791 -0.177807 1.227602 -1.058983 -0.900392 -0.042763 -0.493214 -0.254485 0.675995 -0.815133 0.235109 -1.170346 0.475369
卖家 -0.819072 -0.741207 0.406018 0.317964 1.144801 -1.186651 -0.127321 -0.190645 -0.966434 0.711402 -2.082469 0.525741 -0.539902 -0.365901 1.057836 -0.835233 -0.648711 0.387936 0.807122 -0.375729 0.232795 -1.078444 0.237981 -0.779169 -1.122179 -0.026066 1.094133 -0.510832 -1.687328 -1.440494 0.590626 0.648256 0.798514 0.851855 0.914298 -0.501779 0.546609 -0.580494 -0.260489 0.971038 0.098295 -0.208625 -0.287834 0.101584 0.688945 1.306852 0.395250 0.301656 0.256571 -0.686297
透 -0.403344 -0.180370 -0.057592 -1.073579 0.156351 0.355338 -0.213002 1.022047 -1.396738 0.134595 -1.017831 -0.022017 0.299837 0.593570 0.252851 -0.063762 0.188802 0.368029 0.295621 0.015524 -0.112745 0.886491 0.387637 -0.457909 -0.275277 0.097834 0.229837 -0.471152 -0.483823 0.294710 0.821928 0.526819 0.247238 0.090564 0.340213 0.092305 -1.117941 -0.614144 -0.317778 -0.759423 -0.386828 -0.303967 -0.364713 -0.100044 0.108299 -1.052398 -0.502074 0.028582 0.432225 -0.047903
推荐 -0.007952 0.099552 0.274169 0.886330 0.833442 0.166364 1.087789 -0.421179 -0.358697 0.327920 -0.335443 -1.221685 -1.073854 0.249410 -0.395812 -1.027082 0.740951 0.716084 0.769810 -1.237314 0.569489 1.360762 1.490026 -0.010013 0.001099 -1.458326 1.481412 -1.522900 -0.953209 -1.671810 0.453317 0.805350 -0.103527 0.521542 0.476269 -0.224011 0.139073 -0.106789 -1.252342 0.951681 -0.422317 0.385806 -0.953255 -0.802866 -0.680271 0.025215 -1.233000 0.823599 -1.179408 -0.855835
感觉 -0.086576 -0.114780 -0.311537 -0.818959 0.211257 0.128298 -0.060167 0.811271 -0.831228 -0.010216 -0.199716 0.352281 0.543251 0.941937 0.508095 0.299181 0.263904 0.047652 0.391986 0.165709 -0.076599 0.816177 -0.130335 -0.101226 -0.651852 0.269632 0.041574 -0.045652 -0.445163 0.697637 0.228996 -0.324056 0.242675 -0.755780 0.239561 -0.149297 -0.869791 -0.391414 0.005214 -0.265569 -0.262315 -0.571946 -0.517173 0.053579 0.190271 -1.028131 -0.363805 -0.087030 -0.329746 -0.122174
说 0.520109 -0.214575 0.747458 0.261805 0.241480 0.646007 0.124821 1.094246 -0.352886 -0.184027 1.262087 -0.903490 -0.426579 -0.662797 0.356085 -0.238843 1.404376 0.688385 0.207974 -0.714842 0.137098 0.757228 0.458178 0.246941 0.269248 -1.398241 -0.008938 -0.621179 -1.546424 -1.358560 0.925517 -0.687690 1.468060 -0.291585 -0.780293 -1.409086 -0.600611 -0.283273 -0.915116 -0.448416 -0.126712 -0.057507 0.115045 -0.074282 -0.082271 0.531230 -0.598995 -0.337464 -0.953091 -0.970090
图片 0.264288 -0.195966 0.308248 -0.442018 0.633570 0.204103 -0.083458 0.479660 -0.764271 0.223670 -0.440986 -0.806934 -0.382503 0.301376 0.632767 0.234833 0.148385 1.088428 0.001582 0.235894 -0.066218 0.058124 -0.737222 -0.999216 -1.009632 0.320995 0.736754 -0.473239 -1.347285 0.234723 -1.417389 1.220929 0.628927 -0.492224 0.182610 -0.569241 -1.042817 -0.574061 -0.091933 0.196296 -0.047843 -1.404189 0.354564 -0.440045 0.351768 -0.085870 -0.975103 0.487350 -0.867308 0.536148
真的 0.855886 -0.866280 0.227636 -0.707289 0.898070 0.527203 0.531804 -0.081922 -0.484200 -0.175242 -0.603685 0.063648 -0.379460 0.079375 0.040434 -0.147197 -0.014751 0.192088 0.259732 0.611118 0.145316 -0.139392 0.411029 0.180999 -0.382157 -0.074292 -0.654190 -0.321929 -1.080128 -0.274751 0.352197 -0.533252 0.547777 -0.342977 0.219217 0.139471 -0.578809 -0.133079 -0.025953 0.321864 0.469358 0.250410 -0.153434 0.942966 0.566347 0.177282 -0.619755 -0.024229 -0.293988 0.145497
布料 0.324176 -0.036363 0.248373 -0.731079 0.938195 -0.070029 -0.250636 0.881957 -1.584526 0.008279 -0.965347 0.196999 -0.374882 0.958210 -0.056034 -0.026485 0.180524 -0.159019 0.394032 0.462518 0.080037 0.900921 0.771826 -0.598357 -0.814887 0.118985 0.413514 -0.562139 0.180331 0.881547 -0.190859 -0.111740 0.070939 -0.426465 0.043346 0.198346 -0.668011 -0.769643 0.066396 0.387629 0.307713 -0.271268 0.277510 0.213347 0.691353 -0.972990 -0.652435 0.327298 -0.851753 0.715684
棉 0.111064 0.012050 -0.700588 0.244604 1.106612 0.175407 0.371238 0.275579 -1.095318 0.369882 -0.942364 -0.649838 -2.292051 1.758296 0.274188 0.549025 0.492949 0.379230 0.172235 0.679200 0.294661 0.665198 -0.466862 -0.927531 -0.753114 -0.069486 -0.095528 0.378902 0.312819 1.125954 0.054428 0.167227 0.305740 -0.438016 -0.273841 0.353375 -1.538295 -0.881458 -0.320370 1.757040 -0.078136 -0.949717 -0.488782 0.493890 -0.373824 -0.559214 -1.174730 0.691022 -0.302467 0.482143
客服 -1.071413 -0.229254 0.761888 1.152828 1.124230 -1.366529 0.628863 -0.075640 -0.785344 0.911278 -1.308450 0.401692 -0.388852 0.081928 0.260241 -1.533866 -0.609414 -0.077289 1.740366 -0.597638 -0.209271 -0.434240 0.458916 -1.006351 -1.017090 -0.140400 1.253926 -0.429460 -0.619742 -1.838007 0.693757 -0.012180 0.249196 0.234741 0.743264 -1.338657 0.224743 -0.178052 -0.586152 0.925077 -0.815464 -0.169644 -1.100780 -0.201293 -0.366182 1.401257 0.318440 0.322200 -0.737927 -1.835431
尺码 -1.798244 0.626978 0.604414 0.663885 0.527701 -0.793338 0.438885 0.009956 -0.927703 0.099850 -2.101788 -0.735879 -0.564684 0.832193 -1.000391 -1.035485 -0.930940 0.228481 1.401051 -0.162198 0.157983 0.683623 1.558386 -0.744022 -0.618135 -1.128902 1.557249 -0.012006 -0.807011 -0.576107 0.025135 1.035444 0.366922 0.268890 0.234378 0.417166 -0.288816 0.102809 -0.808766 0.794884 -1.053770 -0.616168 -0.682685 -0.813597 -0.674398 0.255530 -0.907219 0.247020 -1.234369 -0.640452
色差 -0.182158 -0.010806 0.429328 -0.586680 0.439822 0.037040 -0.068725 0.390701 -0.745067 0.214376 -0.794341 -0.551726 0.117251 0.649790 0.152213 0.019442 0.098525 0.308770 0.428994 0.177525 -0.031315 0.239091 -0.246576 -0.675636 -0.724202 -0.042488 0.935275 -0.568622 -0.788579 0.118047 -0.466054 0.884895 0.206297 -0.334101 0.322087 -0.313037 -0.857179 -0.657148 -0.066746 0.059743 -0.085407 -0.718405 -0.119891 -0.235257 0.456075 -0.573250 -0.893431 0.456354 -0.602371 0.232065
下次 -0.049094 -1.249210 0.551576 0.984457 0.674119 0.434568 1.064674 -0.064039 -0.197886 0.676811 -0.684701 0.635778 -0.495178 0.686771 -0.672336 -0.517600 -0.709926 0.717393 0.996637 0.034558 0.559029 -0.324016 0.779995 0.798918 -0.057525 -1.348327 1.091314 -1.275325 -1.871312 0.190726 0.878110 0.059015 1.430402 -0.052847 -0.051718 -0.465072 1.045909 0.536652 0.238354 1.093867 0.431187 0.159861 0.631579 1.194659 0.701268 1.236855 0.003805 0.678112 -1.388331 -0.694370
送 0.456290 -0.968853 -0.730951 -0.731434 0.274286 0.419369 -0.385030 1.418245 -1.928902 0.615631 -1.968918 0.508994 -0.077292 -0.236753 1.031327 -0.558467 0.196388 1.411766 -1.139246 -0.860163 1.104445 -0.934818 0.614499 -0.887843 0.658318 -0.994063 0.037877 -1.352172 -2.020020 -1.505672 1.050404 1.761406 0.357388 1.930536 -0.026968 -0.883752 0.108128 -0.382116 0.111727 -0.928012 -0.184879 0.519270 0.118334 0.345218 -0.768863 0.080636 -0.806733 -0.048615 1.350464 -0.675271
洗 -0.882613 0.119744 -0.766744 -1.194756 0.563003 -0.467608 -0.171316 1.105042 -0.554239 0.398929 -1.259399 0.789670 1.236258 2.377854 -0.346011 1.094316 -0.197417 0.696821 -0.423483 0.042317 -0.203769 1.318228 -0.081564 0.841727 -0.590485 0.457643 -0.251953 -0.206505 0.069093 1.378799 -0.527133 -0.631558 -0.271458 -1.075383 0.516214 -0.263435 -0.170806 -0.179174 0.926930 1.065531 -0.076530 -0.979286 0.106839 0.589760 -0.453665 -0.548546 0.261827 0.260872 -1.076789 -0.069150
便宜 1.017586 -0.385221 1.060349 0.239546 0.756322 0.599047 1.179646 -0.246228 -0.609776 -0.006467 -1.220311 0.097108 -1.262567 -0.075686 0.242026 -0.430083 0.128071 0.675703 0.694443 0.521032 -0.550922 0.891828 0.844266 0.646932 0.062605 -0.159401 -1.112726 -0.066542 -0.912153 0.260605 0.474916 -0.775148 1.132616 -0.542159 0.361301 0.604056 -1.024380 -0.357509 -0.705738 0.526547 0.729960 0.089069 0.034271 0.887074 0.957970 0.449527 -0.572796 -0.670308 -0.649098 -0.183868
衬衫 0.544024 -0.310822 0.008909 -0.567807 0.501169 0.773626 -0.017921 0.406887 -1.165079 -0.269222 -0.478311 -0.018016 -0.082291 0.379014 0.290346 -0.423967 0.327418 -0.040792 0.496653 0.368557 -0.054423 0.891109 0.889748 0.395280 -0.459280 -0.082481 -0.484216 -0.187556 -0.513569 0.926026 0.070277 -0.106577 -0.010636 -0.566144 0.008659 0.124173 -0.365025 -0.096292 -0.090854 -0.130579 0.120182 0.266592 -0.419626 0.784340 0.216652 -0.235774 -0.530492 -0.066959 -0.640344 -0.504050
挺好 -0.406977 -0.316012 0.279376 -0.687404 1.056743 0.085911 -0.067952 0.417752 -0.860091 0.033689 -0.329038 -0.129797 -0.241563 0.658158 -0.072470 0.076477 0.434633 0.198866 0.751824 -0.306516 -0.086720 0.131749 0.255077 -0.190540 -0.739978 -0.307248 0.563694 -0.464450 -0.245486 -0.262059 0.694499 0.493286 0.571439 -0.284770 0.335471 0.247000 -0.043989 -0.375053 0.076944 0.318744 -0.503349 -0.199193 0.050535 0.406462 0.227207 -0.505611 -0.703166 0.333255 -0.434979 -0.518187
服务 0.265459 -0.984976 0.285107 0.898396 2.117718 -0.573874 1.132784 0.651595 -1.238464 1.027668 -1.643930 0.321358 -1.256667 -0.039213 0.465807 -1.033146 -0.098336 0.643482 0.395469 -1.012388 0.639156 -0.987327 0.188762 -1.442997 0.074264 -1.303121 1.496167 -1.621864 -0.880231 -1.839612 1.171798 1.050819 0.396602 1.357862 0.036602 -1.092111 -0.311291 0.027714 0.421231 0.653081 -0.714236 0.251886 0.313136 0.814147 -0.724424 1.220497 -1.085358 -0.215260 -0.238995 -1.770933
态度 -0.293585 -1.660289 0.633938 0.837407 1.198633 -0.217104 0.939102 0.002280 -0.138872 -0.820985 -1.658862 0.482275 -0.854306 -0.761743 -0.659241 -0.020130 0.822807 0.540324 0.633755 -1.934585 1.572609 -0.300398 0.335438 0.196886 0.079568 -1.185864 1.844150 -1.893329 -2.718110 -1.714309 0.988922 -0.020663 0.374861 1.291256 0.806037 -0.137737 0.314620 -1.619331 -0.364532 1.649263 0.296299 0.369031 -0.308589 -0.887503 0.407250 0.827760 -0.720859 0.916844 0.079135 -0.946165
买的 0.356060 -0.003106 0.442363 -0.374661 0.080026 -0.039102 0.180691 0.684710 -0.470123 -0.535117 0.711852 -0.546888 0.169901 0.444312 0.384666 -0.449154 0.689650 0.706879 0.263562 -0.659876 -0.411385 0.903576 0.895495 0.796314 -0.620927 -0.702483 -0.290914 -0.076003 -1.183662 -0.695349 0.137153 -0.927455 0.796495 -0.745996 -0.790848 -1.199734 -0.484906 0.470211 -0.772303 0.398726 -0.382087 0.438434 -0.380961 -0.110012 -0.696567 0.774918 -0.400006 0.340105 -0.623390 -1.292043
购物 0.893133 -1.368767 -0.483003 -0.222389 2.492492 -1.108877 0.548170 0.846993 -0.479038 -0.468475 -2.018685 -0.380429 0.375732 1.178246 -0.100976 -0.120090 -0.024091 1.545889 -0.265008 -1.119429 0.703241 0.021471 1.204154 1.381706 -0.372585 -0.291868 0.504327 -1.510362 -0.938707 0.621332 -0.600223 -0.515098 0.477173 -0.128944 0.018809 -0.466812 1.311815 0.735491 0.591638 1.343859 0.909930 0.902376 0.860118 -0.104443 -1.409663 1.616508 -0.384497 0.273041 -0.430609 -1.200027
码 -2.321502 0.504055 0.019752 0.496736 -0.932750 0.018311 -0.031414 0.257842 -0.437687 0.437934 -0.253374 -0.463487 0.663553 1.349119 -0.512381 -0.333885 -0.621444 0.264393 1.436633 -0.594400 -0.334074 1.192804 0.848290 -0.453914 -0.600568 -0.756501 1.012655 0.380754 -1.337355 -1.035247 0.330291 -0.020911 0.373322 -0.500922 0.427890 -0.832098 -0.331194 0.307983 -1.141259 0.103597 -1.172263 -0.357525 -1.942369 -0.344263 -0.697513 -0.024344 0.223517 0.356443 -1.653663 -1.247624
点 -0.796302 -0.166873 -0.269189 -0.054723 -0.313938 0.153972 0.031933 0.663419 -0.678262 0.145190 -0.634538 0.241163 0.822728 0.568969 0.619282 0.365170 -0.025964 0.475216 0.418446 -0.482145 -0.401066 0.812698 -0.419554 -0.508169 0.005110 0.519684 0.638859 -0.295062 -0.957824 -0.100725 0.215440 0.318887 0.089486 0.031275 0.796477 -0.724546 -0.731484 -0.698701 -0.316911 -0.373802 -0.284661 -0.873073 -0.786053 -0.436657 -0.157627 -1.205022 0.204400 -0.329246 -0.329749 -0.524623
朋友 0.420629 -0.358015 1.252779 -0.085794 0.484949 0.303791 -0.682396 0.473254 -0.554268 -0.295426 0.491898 0.116370 -0.433907 0.506685 -0.025153 -0.949667 0.518938 -0.492679 1.700406 0.026310 0.263069 -0.436553 1.400613 -0.010380 -0.904105 -1.214159 -0.471167 0.329891 -1.839773 -1.145009 0.441879 -0.801671 1.358621 -0.560488 -0.803421 -0.763319 0.836833 0.566869 -0.961002 0.972476 -0.243940 0.470432 -0.802065 1.262524 -0.250222 1.189983 -0.189899 0.861353 -0.921824 -1.053469
棒 0.218370 -1.427735 0.153811 -1.180400 1.899875 0.328000 0.406351 0.128184 -0.928858 -0.387577 -0.346130 0.097468 -0.233340 -0.373246 -0.119252 0.077219 0.087001 -0.022048 0.507752 -0.022064 0.616753 -0.766986 0.218828 -0.097067 -0.656633 -0.024320 -0.156317 -0.817798 -1.070653 -0.781675 0.691388 0.376567 0.853621 0.141028 0.608540 0.125251 -0.091678 -0.849018 -0.188097 -0.064598 0.294891 0.004299 0.048446 1.057091 0.591539 -0.456875 -0.691273 -0.147588 -0.113738 -0.090108
正 -0.339106 0.331457 0.863802 0.269862 0.581685 -0.369878 0.116791 0.421799 -0.973162 1.204094 -0.485541 -0.913071 -0.623100 0.908285 -0.172619 -0.912864 -0.005601 0.708252 1.280822 -0.596459 0.245318 1.206716 0.553694 -0.072749 -1.298460 0.196460 0.985859 -0.474589 0.107697 0.099160 -0.947465 0.559640 0.547702 -0.959949 -0.048445 -0.294111 -0.260406 -0.279017 -0.791755 0.759699 -1.043542 -0.850283 -0.365948 -0.753443 -0.406178 -0.073145 -1.030900 0.914051 -1.052718 0.329385
袖子 -0.174449 -0.218919 0.217292 -0.868219 0.068613 0.375219 -0.655612 1.346037 -1.244963 0.112494 -0.666630 -0.258612 0.681123 0.406274 0.426049 0.183248 0.505771 0.256873 0.533309 0.365293 0.286477 0.436202 0.212762 -0.863739 -0.225430 0.486629 -0.048187 -0.116275 -0.873277 0.366938 -0.281995 0.414484 0.409240 -0.326285 -0.144042 -1.059540 -0.230782 -1.107311 -0.516160 -0.924903 0.350338 -0.790625 -0.518478 -0.099573 -0.092593 -1.334322 0.078662 -0.468474 -0.126759 0.348961
物美价廉 0.689426 -0.834115 0.188819 -0.258929 1.256541 -0.036908 0.439608 0.127849 -0.390607 -0.135088 -0.850005 0.007044 -0.809329 0.189347 0.159896 -0.338614 0.082755 0.001281 0.633968 0.046493 0.258156 -0.109723 0.609946 0.172209 -0.137705 -0.105031 -0.112277 -0.556078 -0.783508 -0.345083 0.286463 -0.028676 0.427233 0.131196 0.145113 0.202832 0.261675 -0.132433 -0.004977 0.846819 0.468727 0.185072 -0.119544 0.706261 0.027406 0.134459 -0.526586 0.097528 -0.550906 -0.112667
快递 -0.413880 -0.955474 0.689059 0.188474 0.977018 -0.776769 -0.131765 0.254186 -0.483186 0.313249 -1.610981 0.943517 -0.345857 -0.326673 -0.116529 -0.149292 -0.052519 0.537274 0.009055 -0.816541 0.864367 -0.691946 -0.427587 -0.785617 -0.527683 -0.262164 1.023195 -0.799144 -1.683518 -1.280849 0.696525 -0.437337 0.068515 0.439655 0.261151 -0.384352 -0.477987 -1.030873 0.321520 1.057268 -0.286165 0.174614 -0.402697 0.211549 0.443374 1.049518 -0.234130 -0.106833 0.469315 -0.609514
天 -1.255059 -1.096231 -0.423915 -0.839936 0.900608 -0.509494 -0.682879 1.073338 -0.599799 1.052787 0.081406 0.852606 -0.143096 0.524024 -0.379465 0.525113 -0.639150 -0.009431 -0.698555 -1.220608 0.562597 -0.015929 -0.658510 -0.184370 0.126793 0.206629 -0.653448 0.434169 -1.162404 -1.046883 0.480414 -1.211486 -0.366432 -1.125844 0.555888 -0.408908 -0.631319 -0.936590 0.915924 0.783721 -1.020267 0.413429 -1.011922 2.229360 -0.380513 1.145733 0.374503 -0.862786 -0.604080 -1.430084
店家 -0.733444 -0.619446 0.408101 0.587131 0.604988 -1.403587 -0.142622 -0.040417 -0.815027 0.856941 -1.969553 0.439434 -0.291025 -0.242210 1.135751 -0.842278 -0.635173 0.542921 0.966081 -0.649577 0.257143 -0.818851 0.320835 -0.516148 -0.949284 -0.178481 1.227715 -0.536512 -1.711804 -1.485852 0.349321 0.284232 0.834008 0.873819 0.836152 -0.764609 0.883217 -0.188918 -0.269765 1.008776 0.011515 -0.026738 -0.271855 -0.028345 0.360712 1.425649 0.521143 0.215402 0.291250 -0.968739
同事 0.277936 -0.100438 0.923418 -0.072941 0.357217 0.656046 -0.997720 0.513518 -0.666357 -0.599243 0.925830 0.309162 -0.230762 0.749020 -0.176484 -0.694261 0.736382 -0.438288 1.563294 0.325221 -0.111846 -0.152021 1.153436 0.069294 -1.005890 -0.961812 -0.943421 0.454694 -1.517606 -0.998030 0.369046 -1.177403 1.504043 -0.779376 -0.972485 -0.787349 0.068425 0.849097 -0.671593 0.762764 -0.608436 -0.013481 -0.529091 1.082633 -0.250765 0.746387 0.093629 0.861993 -1.059963 -0.864711
两 -0.319234 -1.028478 0.038707 -0.854835 0.190939 0.230228 -0.986081 1.098301 -0.641246 -0.449521 -0.021083 1.080980 1.346794 0.687475 -0.166798 -0.174861 -0.022100 0.299999 -0.481480 -0.673287 -0.200136 -0.132891 0.226688 0.775650 -0.144286 -0.434760 -1.114808 0.172732 -1.397777 -1.430718 0.750196 -1.220301 -0.025711 -0.503716 0.248876 -0.589600 -0.462109 0.116023 0.671466 -0.068735 -0.302272 1.059447 -1.393245 1.422329 -0.465477 0.957699 0.075035 0.063843 -0.445520 -1.346356
想 -0.347153 -0.402491 -0.063551 -0.228191 -0.893172 1.407588 0.127834 0.159065 -0.308638 -0.192227 0.644557 -0.010957 -0.019702 0.445864 0.069880 -0.285937 -0.232427 0.340017 0.652812 0.404546 -0.453313 0.440233 0.262159 -0.306775 -0.081204 -0.133209 -0.768552 0.301109 -1.417739 -0.885200 0.093189 -0.666201 0.146549 -0.200494 0.231182 -0.685069 -0.416708 0.181840 -0.633837 -0.197694 0.014140 0.034159 -1.543659 1.048805 -0.077910 -0.139715 0.163146 0.154317 -0.928451 -0.361484
发货 -0.289292 -1.254162 0.589317 0.442582 1.203405 -0.391432 0.230707 0.148616 -0.317103 -0.059755 -1.413587 0.839593 -0.951838 -0.201371 -0.163429 -0.210968 -0.027888 0.728104 -0.353364 -1.117614 0.793650 -0.581576 -0.230296 -1.041976 0.150804 -0.530269 0.833044 -0.981981 -1.512088 -1.735211 0.509074 -0.184875 -0.429342 0.754661 0.339285 -0.256044 -0.592177 -1.009052 0.612484 1.273428 -0.332159 0.054482 -0.245142 0.682573 0.022734 0.943308 -0.380313 -0.352610 0.182602 -0.860781
柔软 -0.265309 0.031851 -0.084779 -0.986191 1.608898 0.139418 -0.032538 0.955015 -1.759819 -0.018412 -1.526073 -0.573434 -1.154410 1.033359 -0.471141 0.116525 0.605918 0.440894 0.951705 0.245270 0.072292 0.958021 0.868959 -0.449213 -0.979028 -0.000059 0.650702 -1.009472 0.711719 0.754912 0.492270 0.503608 0.287851 0.195262 0.228893 0.688121 -0.579783 -0.862030 0.452142 0.581641 -0.011463 -0.280140 0.697069 0.420159 0.408588 -1.335164 -0.985559 0.767955 -0.884823 -0.025243
正好 -0.799602 0.241323 0.711699 0.550121 -0.351076 -0.343710 -0.157544 0.349589 -0.846035 0.922733 -0.474747 -0.216602 -0.145495 1.117859 0.404367 -0.379087 0.111072 0.741186 0.895848 -1.376259 0.448681 1.352628 0.461589 -0.089969 -1.088871 -0.216580 1.138121 -0.631128 0.447146 -0.001157 -0.153008 -0.738958 -0.147519 -0.736373 0.567456 -0.678477 -0.015985 -0.714751 -0.595038 0.265427 -0.911614 0.251504 -0.967290 -0.344850 -0.411472 -0.275072 -0.278091 0.874292 -0.563951 -1.052539
hellip 0.737113 -0.601350 0.746639 0.878024 0.685733 -0.983617 0.071036 1.985541 -0.625412 0.789629 -2.320851 1.596218 -0.129538 0.983109 1.786973 0.296706 2.117717 0.523343 1.885122 0.887045 0.065144 -0.602952 0.069617 -0.975750 0.756825 0.694740 -0.187891 -0.826630 -1.097841 -0.784756 -0.757339 -1.312833 1.588364 0.527990 0.797610 -0.719591 1.365322 -0.209606 -0.418307 0.042393 1.113814 -1.225966 -0.069404 -1.124992 -1.865374 -1.221345 -0.082048 -1.464880 0.014156 0.798059
拍 -0.695417 -0.186976 -0.253792 -0.771558 -0.556526 -0.309299 0.372753 0.324007 -0.245395 -0.063192 0.736782 -0.214841 0.801028 0.534973 -0.062761 -0.398513 0.112586 0.411955 -0.321899 -1.210291 -0.339279 0.743427 0.133807 0.043585 -0.427923 -0.253536 0.420705 0.188731 -1.409516 -1.368144 0.118396 -0.281599 -0.122104 -0.507308 -0.002275 -1.924713 -0.532718 -0.093319 -1.020955 0.471374 -0.736660 0.051872 -1.922009 -0.161266 -0.767825 0.355686 -0.159628 0.453946 -0.967511 -1.425357
实惠 0.948421 -0.081357 1.806957 0.388497 1.205480 0.229834 0.616702 -0.367227 -0.804456 -0.006069 -1.613774 -0.066260 -1.656589 -0.195856 0.232739 -0.613584 0.350198 0.887091 0.765808 0.003288 -0.884302 0.880906 1.197265 0.574675 0.208517 -0.180579 -0.847925 -0.126057 -0.560457 0.195871 0.491689 -0.224101 1.540576 -0.431032 0.486547 0.691203 -0.513013 -0.644666 -1.381622 0.559333 0.903724 0.228143 0.462931 0.752606 0.898413 0.503812 -0.697986 -0.574628 -0.700127 -0.485420
衬衣 0.486293 -0.325590 -0.123832 -0.506788 0.572847 0.689331 0.153711 0.162663 -0.786940 -0.202993 -0.243933 0.054139 -0.049503 0.407871 0.235121 -0.309984 0.217617 -0.031480 0.435808 0.425222 -0.091339 0.759394 0.822651 0.406575 -0.399700 -0.148896 -0.446056 -0.232276 -0.526135 0.647248 -0.061566 -0.255746 0.066024 -0.508732 0.152172 0.039283 -0.221086 0.085578 0.050473 -0.002879 0.226703 0.298238 -0.418986 0.820597 0.329859 -0.239598 -0.429096 -0.063868 -0.888443 -0.330580
刚刚 -0.408360 0.098843 0.358091 0.103128 0.243596 -0.668281 0.165669 0.246318 -0.714091 0.664421 -0.182402 0.016110 -0.281560 1.171025 0.318098 -0.115397 0.387766 0.546812 0.616578 -0.905396 0.539485 0.812832 0.126380 -0.133609 -1.262352 -0.542827 1.185012 -0.426904 0.314800 -0.050665 -0.152812 -0.797334 0.112805 -0.902303 0.303166 -0.514325 -0.177004 -0.325166 -0.234525 0.625229 -0.930645 0.045940 -0.635814 -0.363157 -0.273308 0.010121 -0.731085 0.863493 -0.870451 -0.840543
版型 0.069795 0.068510 0.544933 -0.389051 0.811575 0.436744 -0.125110 0.555036 -1.187155 -0.136571 -0.818062 -0.534002 -0.588431 0.567601 -0.261220 -0.367476 0.586465 -0.061198 1.022171 0.421703 0.017725 0.679725 0.913011 -0.569144 -0.591875 -0.177208 0.482991 -0.642020 -0.073214 0.562404 0.125981 0.460953 0.566206 -0.280247 -0.187785 -0.071646 -0.602219 -0.588594 -0.517101 -0.026251 0.054000 -0.305238 -0.000490 -0.073388 0.154124 -0.941374 -0.778654 0.515819 -0.946332 0.005909
超级 0.757549 -1.317133 0.322113 -0.966694 1.715118 0.261499 -0.006302 0.490484 -0.819189 -0.088374 -0.561638 0.022581 -0.319372 -0.312057 0.092787 -0.310572 0.354423 -0.077798 0.507714 0.064496 0.633096 -0.656146 0.234918 -0.204106 -0.253572 -0.067353 -0.413284 -0.659508 -0.875430 -0.527879 0.643075 0.256777 0.629360 -0.019644 0.117836 -0.190630 0.009493 -0.757233 0.001384 -0.088298 0.489799 0.137838 -0.056731 1.184362 0.246621 -0.046271 -0.742427 -0.089686 -0.123738 -0.131402
全 -0.200527 0.401176 0.667308 -0.166726 0.511760 -0.064115 0.328216 0.724536 -1.630823 -1.151052 -2.004001 0.497549 -1.287788 1.302716 0.519900 -0.437554 0.214634 1.087613 -0.051081 -0.183162 0.200801 1.057125 0.021651 0.188244 -0.341299 -1.456328 0.356642 -1.694954 0.153022 -0.897691 0.167575 -0.836930 -0.073536 1.120335 -0.189260 0.106452 -0.895831 0.117098 1.476097 0.192474 -0.741484 -0.697536 1.411576 0.639370 0.784971 0.938136 -0.230575 1.032369 -1.313705 0.412964
一点 -0.439590 0.052727 -0.186409 -0.544535 -0.591128 0.666273 -0.155667 0.659077 -1.280789 0.263412 -0.618581 0.194132 0.073258 0.806037 0.435603 0.291169 -0.280049 0.502252 0.186246 0.369356 -0.468278 1.162728 0.009993 -0.613431 -0.440482 0.529351 0.124253 -0.120422 -0.575425 0.281970 0.061584 -0.075795 -0.065349 -0.358145 0.510814 -0.247247 -0.956755 -0.609447 -0.277891 -0.520968 -0.184179 -0.724970 -0.600282 -0.091610 0.289526 -1.038389 0.175965 0.013361 -0.393237 0.022481
赞 0.215963 -0.898184 0.318543 0.174918 0.958939 -0.193629 0.513893 0.249752 -0.340708 0.029632 -1.027378 0.182482 -0.318552 -0.037470 0.397325 -0.238070 0.013290 0.301715 0.587770 -0.432328 0.308908 -0.013854 0.100036 -0.161800 0.096125 0.023121 0.298442 -0.841024 -0.864887 -0.555639 0.466039 0.119215 0.320764 0.456342 0.304228 -0.219787 0.112051 -0.441400 -0.038946 0.463948 0.338128 -0.315227 -0.032877 0.320838 0.121447 -0.101679 -0.168489 -0.347494 0.048111 -0.328496
试穿 -0.294201 -0.292227 0.001890 -0.813152 0.759341 -0.298576 0.055904 0.343922 -0.886194 0.076478 0.213112 0.103372 -0.347823 0.919186 -0.803907 0.308430 0.528926 0.367007 -0.532266 0.156221 0.339496 0.426558 0.294674 -0.488845 -1.075493 -0.527663 0.542280 0.023984 -0.398108 0.017537 -0.457706 -0.461658 0.313817 -1.101443 -0.331291 -0.545353 -0.785491 -0.180826 0.098995 0.809320 -0.642392 -0.731801 -0.279065 0.200615 0.299526 0.277812 -0.520244 0.340644 -1.206248 0.106889
舒适 -0.321400 -0.139003 0.316020 -0.305805 1.441456 0.162753 0.039055 0.480419 -1.465168 -0.059491 -1.268835 -0.271189 -0.995947 0.970432 0.058089 -0.157456 0.222350 0.317685 1.195615 -0.031095 0.093332 0.932827 1.126720 0.141633 -0.834867 0.064173 0.728438 -0.739276 0.520025 0.811838 0.424655 0.311681 0.176168 -0.140818 0.353978 0.709870 -0.117457 -0.701280 -0.113252 0.759338 -0.123344 -0.092275 0.569550 0.181241 -0.002887 -1.314325 -0.958599 0.625516 -0.656793 -0.375183
手感 0.107585 -0.289930 -0.174318 -0.874229 1.495541 -0.142403 0.255134 0.559761 -1.637663 -0.111407 -1.332855 0.335919 -0.760735 0.851638 -0.166677 -0.090281 0.179187 0.154446 0.183313 0.460910 0.135155 0.389061 0.775429 -0.554011 -0.974908 -0.028802 0.709309 -0.883623 0.077054 0.628585 0.170831 0.432915 0.178677 0.008104 -0.016883 0.399093 -0.844073 -0.551507 0.392184 0.654335 -0.043894 -0.281221 0.616379 0.250691 0.589641 -0.750184 -0.929173 0.570864 -0.849390 0.190525
不透 -0.124244 -0.108153 -0.107187 -0.971312 0.683326 0.389897 -0.256838 0.781228 -1.333086 -0.162555 -0.727650 -0.233373 -0.261731 0.741124 -0.059294 -0.177059 0.355284 0.291200 0.367825 0.090552 -0.115340 0.931554 0.825185 -0.206826 -0.610928 0.147824 -0.032906 -0.511868 0.106448 0.493613 0.256944 0.285135 0.266803 -0.215192 -0.053555 0.149998 -0.758386 -0.540442 -0.143361 -0.169380 -0.096893 0.018945 -0.214148 0.132427 0.163584 -1.040004 -0.507129 0.423345 -0.384048 -0.001148
摸 -0.015896 -0.407090 -0.293640 -1.205455 1.247845 -0.149175 -0.351765 1.257546 -1.722909 0.117145 -1.496056 0.348652 -0.514019 0.744055 -0.851701 0.246319 0.514666 0.300327 0.301786 0.504619 0.119657 0.369227 0.497677 -0.854867 -0.838584 0.108590 0.347771 -0.843183 0.176391 0.613833 0.428728 0.290169 0.430428 0.044163 -0.079877 0.174264 -0.832054 -0.842953 0.721135 0.357329 0.248678 -0.336364 0.456594 0.519178 0.977863 -0.479764 -0.277852 0.462770 -0.629899 0.232447
很好 -0.174328 -0.575856 0.175410 -0.077342 1.333824 -0.166774 0.429950 0.386169 -0.889600 0.081456 -1.044877 0.192310 -0.519350 0.196724 -0.199750 -0.242614 0.247560 0.303309 0.627316 -0.207009 0.194945 -0.424120 0.262962 -0.491175 -0.663700 -0.297954 0.808390 -0.944458 -0.547504 -0.551941 0.553751 0.424450 0.629517 0.403744 0.257428 -0.046316 -0.281974 -0.284144 0.138811 0.466301 -0.269449 -0.119027 0.202475 0.067749 0.048507 0.021514 -0.558431 0.258831 -0.291821 -0.564401
买到 1.390455 -0.927588 0.853483 -0.426027 0.779998 0.786827 1.733024 -0.603441 -0.536005 0.012548 -1.516599 -0.080552 -1.168604 0.154756 0.170568 -0.362702 -0.394503 1.001161 0.364236 0.908710 -0.607649 0.533782 0.756598 1.212461 -0.358888 0.404052 -1.662436 -0.259078 -1.815815 -0.020499 0.318985 -1.333161 1.468035 -0.880524 0.484553 0.385990 -1.554464 0.009943 -0.630815 0.807832 0.939609 0.304449 0.111481 1.007253 0.926231 0.692060 -0.720631 -0.378576 -0.262275 0.237237
想象 -0.349729 -0.012813 -1.165759 -0.568823 0.421649 0.312865 0.433809 0.138447 -0.519323 0.910511 0.110724 -0.701329 -0.111708 1.617389 1.527842 2.030032 1.619272 1.865602 0.435605 1.078921 -0.492201 0.988813 -0.229417 -1.248253 -1.554413 0.485097 0.579817 -0.189076 -1.670788 -0.221838 -1.482020 -0.147930 1.470650 -0.289630 0.519332 0.621969 -1.412095 0.364732 0.799867 -1.076628 0.829796 1.201708 -0.093263 -0.098431 1.336440 -0.576977 -1.136652 0.541891 -1.432729 -0.136289
薄 -0.479264 -0.083069 -0.061883 -0.856249 0.001884 0.437370 -0.231643 1.200308 -1.628087 -0.101569 -0.963659 0.169542 0.086982 0.641878 0.217398 0.312969 -0.057530 0.621366 0.294525 0.093825 -0.368957 1.357699 0.559770 -0.617074 -0.569473 0.571677 -0.052698 -0.439397 -0.110290 0.543571 0.197402 -0.141569 0.176482 -0.233703 0.189759 0.077471 -1.401310 -0.879431 -0.053350 -0.720382 -0.180685 -0.474303 -0.302771 -0.215776 0.481274 -1.336023 -0.065248 -0.186960 -0.078590 -0.054511
下手 1.133107 -0.681026 0.255433 -0.754700 0.347686 1.021424 0.692021 0.453331 0.103310 -0.459445 0.491071 -1.089818 -0.794501 0.494819 0.640686 -0.610022 0.958603 -0.076304 0.436655 -0.092099 0.294548 -0.116187 1.104682 -0.078954 0.688704 -0.762912 -1.191507 -0.263310 -1.644067 -1.085842 -0.151159 -0.192101 0.342386 0.154356 -0.966149 -1.335499 1.284307 0.034469 -1.513887 0.561607 0.977609 0.302124 -1.715039 1.396268 -1.410505 0.433475 -0.134562 0.175960 -1.584579 -0.118005
光顾 1.170603 -0.963486 0.142426 0.025504 0.952525 -0.786184 0.551783 -0.230373 -0.722977 0.534513 -1.478193 0.381475 -1.239750 -0.006036 -0.031229 -0.156114 -0.419945 0.861727 0.031688 -1.098998 -0.046430 0.435975 0.899351 0.865083 -0.343567 -0.530438 0.590654 -0.684287 -1.247037 -0.313729 0.409332 -0.396484 0.869203 0.168352 -0.429110 -0.715474 0.792504 1.081583 -0.612071 1.710672 0.322032 0.024266 0.707169 0.424441 0.070973 1.223657 -0.158718 -0.024929 -0.393947 -0.800418
描述 0.265578 -0.488827 0.141209 -0.296445 0.766489 -0.124097 0.497034 0.144838 -0.798420 0.243368 -1.186608 -0.522616 -0.917862 0.453170 0.312843 0.086410 0.160801 1.173584 -0.388490 -0.490291 0.674038 -0.214303 -0.213493 -0.989714 -0.462353 -0.853637 1.590966 -1.139137 -1.078229 -0.553974 -0.480165 1.289130 0.173798 0.542197 0.281350 -0.105996 -0.582073 -0.421167 0.372021 0.581016 -0.240163 -0.339656 0.561108 0.068282 0.315321 0.170139 -1.418204 0.664380 -0.445460 -0.109127
还好 -0.418222 -0.038183 -0.008577 -0.290229 -0.200664 0.255475 0.195080 0.530297 -0.846340 0.226320 -0.477319 -0.070785 0.083572 0.603138 0.288106 0.189197 -0.172562 0.644229 0.449253 -0.108266 -0.499442 0.969074 -0.050535 -0.302045 -0.524604 0.281615 0.391171 -0.241689 -0.528930 0.073051 0.057379 0.089962 0.265595 -0.118135 0.477059 -0.258835 -0.772161 -0.417272 -0.280424 -0.085579 -0.245081 -0.675373 -0.278132 -0.104481 0.231468 -0.776973 -0.059497 -0.159540 -0.213545 -0.400164
分 0.521633 -0.629120 -0.018465 0.947155 0.769497 0.161328 1.180787 0.331456 -0.772871 -0.050750 -1.373067 -0.017095 -2.851241 1.466450 1.272729 0.613612 0.134749 0.914720 -0.357986 0.307443 0.941948 0.480925 -1.236128 -0.525188 0.074971 -0.607472 -0.509872 0.162371 -1.306141 -0.298211 -0.321541 -1.309696 0.396333 0.283683 -0.021960 -0.466233 -1.253961 -0.767144 0.549610 1.557802 0.196842 -1.570552 0.066868 0.711314 -0.071552 1.158843 -0.270294 0.230236 0.298465 0.921302
白色 -0.298797 -0.233158 -0.008663 -0.981790 -0.285513 1.075680 -0.809846 1.019530 -1.331558 -0.048270 -0.250558 0.040456 0.222338 0.520128 0.181997 -0.126563 -0.038249 0.081190 0.161241 0.011594 -0.361906 0.609483 0.538324 -0.340709 -0.018903 -0.030195 -0.712225 -0.183774 -0.782173 -0.108437 0.473433 0.303476 0.193165 -0.240987 0.224370 -0.321700 -0.623170 -0.474628 -0.481143 -0.977688 -0.105952 -0.020931 -0.835835 0.544690 -0.119429 -0.765298 -0.104244 0.186718 -0.236257 -0.108476
缩水 -0.949035 0.431892 -0.420321 -0.544134 0.644003 -0.241733 -0.277891 0.916176 -0.616356 0.472430 -1.010405 0.329245 0.876738 2.165147 -0.255494 0.659220 -0.682675 0.693198 0.021997 -0.246814 -0.264071 1.798026 -0.084776 0.985921 -0.025837 0.319092 0.156776 -0.251781 -0.003036 1.045950 -0.240391 -0.170441 -0.387628 -0.560587 0.434444 -0.249941 -0.188970 0.087099 0.679265 1.180099 -0.209516 -1.161098 -0.059892 0.516357 -0.344767 -0.708135 0.239554 0.329939 -1.206759 -0.242617
搭 0.045876 -0.877261 0.001928 -0.827618 0.552011 0.262803 -0.279116 1.825045 -0.710718 0.099530 -0.646219 0.314791 0.328264 0.119553 0.246797 0.184816 1.535486 0.083823 1.418547 -0.492475 0.479944 0.299796 1.933599 -0.791140 -0.189549 0.526251 -2.161253 0.324073 -0.341092 0.737001 -0.310125 0.180533 -0.075420 -0.606067 -0.314171 -0.464323 0.161407 -0.308417 -0.514659 -1.486918 0.746939 -0.992810 -0.939296 0.390470 -0.778786 -1.379865 -0.531940 -0.249639 -0.038451 0.274954
家 0.612177 -0.960169 0.193586 0.038549 0.256307 0.196712 0.375211 -0.318826 -0.025012 0.524371 -0.344856 0.316633 -0.188322 0.200816 -0.317433 -0.175454 -1.184864 0.539066 0.260486 -0.693014 -0.412373 0.297882 0.738460 1.143865 0.149691 -0.577771 -0.302894 -0.408229 -1.845127 -0.926871 0.726138 -0.758049 0.868975 -0.329609 0.209578 -0.845905 0.463233 1.219224 -0.510765 1.200699 0.540551 0.568518 -0.182675 1.191038 -0.030519 1.371288 0.195531 -0.039471 -0.911285 -0.912187
货 0.082017 -0.583372 -0.048306 -0.350991 0.134314 0.000124 0.630059 0.050113 -0.784234 -0.145402 -0.106618 0.794467 -0.746521 0.589923 0.770099 0.242537 0.339128 0.628045 -0.739477 0.194815 0.654783 0.276824 -0.714087 -0.496923 -1.037606 -0.909104 0.150424 0.283560 -1.523990 -0.657252 -0.101192 -1.325129 -0.278536 -0.581694 0.147373 -0.622909 -1.229983 -0.534110 0.668397 0.612633 -0.501094 -0.575291 -0.405589 0.913637 0.961879 1.413672 -0.256152 0.009917 -0.441061 -0.343531
雪纺 -0.358171 -0.162864 -0.038045 -1.251645 0.621330 0.403427 -0.459952 1.162674 -1.723514 -0.053548 -0.858953 -0.180412 -0.266361 0.859605 -0.170342 0.186552 0.412253 0.394473 0.766425 0.353789 -0.100739 0.807993 0.703437 -0.541348 -0.974814 0.366705 0.219677 -0.579404 0.193718 0.648448 0.480464 0.253896 0.413821 -0.256565 -0.005494 0.304523 -0.941238 -0.789511 0.126368 -0.319117 -0.229120 -0.143940 0.123125 0.257531 0.454505 -1.340089 -0.585092 0.516181 -0.394893 -0.030157
真心 0.532404 -0.444857 0.161786 -0.361981 0.790963 0.257180 0.474806 -0.119660 -0.442192 -0.051391 -0.462029 0.045100 -0.513191 0.348001 0.041609 -0.411581 0.086185 0.023728 0.424288 0.238548 -0.067004 0.037932 0.759321 0.242913 -0.358681 -0.321492 -0.353602 -0.208893 -0.922352 -0.299843 0.366163 -0.260270 0.509912 -0.253274 0.070498 0.040652 -0.241474 0.190750 -0.305112 0.597587 0.205863 0.232941 -0.279989 0.685114 0.143783 0.229338 -0.496513 0.249941 -0.559708 -0.187479
价钱 1.112761 -0.530025 -0.106548 -0.163408 0.287013 1.101227 1.592961 -0.021386 -0.594245 -0.298923 -1.135239 0.026435 -0.833334 0.525125 0.464356 -0.568316 0.141612 0.278261 0.734851 1.226783 0.253758 0.750547 0.763006 0.703439 -0.703968 -0.060533 -0.890980 -0.592581 -1.227796 0.104130 0.526688 -1.203771 0.322493 -0.237178 -0.273677 0.411032 -1.284107 0.360124 0.475288 0.377802 0.114909 -0.366916 -0.133174 0.690699 0.732099 -0.027310 -0.446875 0.238944 -0.220463 0.822098
衣衣 0.552028 -0.483820 0.095604 -0.659203 0.895920 0.292460 0.107042 0.253938 -0.996355 -0.238922 -0.247583 0.120724 -0.541455 0.362643 0.161080 -0.147545 0.603219 0.115199 0.175080 0.368012 0.451570 0.247875 0.366127 -0.364466 -0.909110 -0.513606 0.184308 -0.365013 -0.558571 0.339535 -0.220913 -0.099111 0.126416 -0.464491 -0.196184 -0.110335 -0.379582 -0.302396 0.233007 0.305020 -0.087997 -0.228415 -0.070191 0.678465 0.655237 0.200864 -0.671113 0.227262 -0.834666 -0.200010
显瘦 0.013646 -0.370966 0.318706 -0.555624 1.197208 0.053049 -0.265296 0.643813 -0.913718 -0.301709 -0.157590 -0.270664 -0.296658 0.528355 0.230460 -0.187961 0.751693 -0.069657 1.184292 -0.408818 0.519754 0.282603 0.735654 -0.149492 -0.666424 -0.221733 0.135168 -0.571195 0.110684 0.163319 0.358570 0.130261 0.817605 -0.266278 -0.144529 -0.080900 0.178654 -0.375115 -0.509895 0.066035 -0.102795 -0.324947 -0.002440 0.300143 -0.125395 -0.952060 -0.641682 0.280425 -0.549016 -0.045939
宽松 -1.130629 0.167520 -0.046823 -0.594320 -0.349706 0.026226 -0.332213 1.201232 -1.082946 0.175150 -0.221315 -0.332987 0.628206 1.026963 -0.464121 -0.239186 0.125605 0.227541 0.950941 -0.513059 -0.317795 1.254187 0.631135 -0.443903 -0.495107 0.196976 0.351583 -0.240723 -0.001016 0.091958 0.367172 0.096200 0.342522 -0.496920 -0.158816 -1.018209 -0.520483 -0.609659 -0.894256 -0.263421 -0.450986 -0.432486 -1.120527 -0.504313 -0.492557 -1.168468 0.201726 0.375203 -0.773281 -0.431830
还行 -0.358823 -0.096615 0.232166 -0.454134 0.118368 0.208286 -0.053294 0.843673 -1.085584 0.069484 -0.642377 -0.024123 -0.105313 0.683388 0.302341 0.193837 0.046744 0.477274 0.537856 -0.081828 -0.269106 0.828963 -0.034773 -0.338527 -0.581101 0.293565 0.240179 -0.325887 -0.296170 0.172647 0.114407 -0.142973 0.286525 -0.219019 0.317086 -0.189914 -0.862825 -0.649006 -0.033791 -0.106711 -0.312993 -0.643682 -0.123432 0.030294 0.272549 -0.843830 -0.209610 -0.015414 -0.149460 -0.117351
值 1.435778 -0.392436 0.826321 -0.230681 0.783616 0.885363 0.823785 0.117052 -0.693600 -0.396594 -1.007671 -0.275857 -1.190065 0.401790 0.496635 -0.041433 0.206826 0.297914 0.330068 0.777707 -0.214624 1.041533 0.641191 0.484807 -0.069067 -0.021933 -1.344135 -0.111965 -1.169351 0.174435 0.209643 -1.354635 0.569653 -0.639454 0.346528 0.260217 -1.069063 -0.442800 -0.331076 0.313805 1.086043 -0.282440 0.201079 1.063231 1.198647 -0.195092 -0.627839 -0.262950 -0.322676 0.788862
行 -0.320356 -0.117938 0.129328 -0.508027 0.273434 0.434791 0.243931 0.509703 -0.895513 0.171335 -0.359816 -0.113559 -0.265390 0.608804 0.244996 0.225900 0.190793 0.481113 0.513894 0.112107 -0.361274 0.642218 -0.128179 -0.348592 -0.658304 0.379053 0.166789 -0.118989 -0.362719 0.175567 0.130625 0.084297 0.410531 -0.434290 0.337551 -0.017576 -0.958753 -0.559654 -0.135725 -0.161906 -0.307916 -0.765242 -0.252154 0.103923 0.264557 -0.887396 -0.291277 -0.062467 -0.235455 -0.239606
线头 -0.244528 -0.093939 0.128546 -0.433583 0.582096 0.404022 0.404337 0.372531 -0.974408 -0.011770 -1.283432 -0.146398 -0.256871 0.604092 0.348548 0.013123 -0.151699 0.176701 0.007222 0.196912 -0.343514 0.780170 0.157787 0.044892 -0.528033 0.461797 0.419464 -0.434505 -0.581660 0.739124 -0.050914 0.035459 -0.406946 -0.046945 0.617573 -0.064700 -0.952931 -0.794420 0.262862 0.233183 0.108989 -0.475513 0.123598 0.319234 0.538701 -1.144309 -0.391421 -0.189057 -0.061517 0.248909
适合 -0.644480 -0.061149 0.276130 -0.429417 -0.007463 0.254537 -0.506442 1.267525 -1.241922 0.290083 -0.457774 -0.281936 0.114530 0.731305 0.158826 0.031424 0.467776 0.328505 0.640007 -0.604066 0.295310 0.962781 0.705203 -0.173419 -0.549600 0.255896 0.083820 -0.337694 0.071479 0.586053 -0.001577 -0.151569 0.191000 -0.469185 -0.100662 -0.369477 -0.333806 -0.699117 -0.400333 -0.549402 -0.522639 -0.162023 -0.404291 -0.049458 -0.462405 -0.963154 -0.195861 0.163136 -0.240415 -0.242166
修身 -0.222291 -0.210472 0.120600 -0.392121 1.015805 0.313138 -0.025384 0.444501 -0.998305 -0.280868 -0.276729 -0.356536 -0.422310 0.616432 -0.205233 -0.162229 0.367683 0.090746 0.805133 -0.015846 0.136069 0.645687 0.827749 -0.305587 -0.676541 0.067991 0.199508 -0.564726 0.041004 0.355418 -0.119465 0.415986 0.491139 -0.468898 -0.111694 -0.078043 -0.281898 -0.355006 -0.499635 0.136540 -0.165086 -0.463086 -0.221583 0.009589 -0.071695 -0.929864 -0.454811 0.343778 -0.936512 -0.014422
号 -1.537625 0.167867 0.097263 0.517160 -0.804093 0.092886 -0.040058 0.344160 -0.257292 0.384216 -0.371355 -0.208011 0.564497 0.953965 -0.363731 -0.498300 -0.659559 0.210558 0.893379 -0.793896 -0.127809 1.009113 0.611617 -0.057325 -0.103794 -0.774511 0.732105 0.102132 -1.264963 -0.835673 0.467209 -0.072470 -0.013666 -0.246048 0.357292 -0.963747 -0.043553 0.094499 -0.882193 0.408640 -0.791434 -0.395601 -1.620494 -0.097363 -0.759761 0.210136 0.319059 0.167125 -1.052829 -1.095657
帮 0.468189 -0.322037 0.614717 -0.215338 0.433410 0.831516 -0.384937 1.074777 -0.551603 -0.480069 1.398337 -0.649320 0.166955 0.732744 -0.169912 -0.428297 0.769943 0.472750 0.650157 -0.582495 0.082931 0.648126 1.291932 0.703176 -0.209758 -1.870904 -0.448793 -0.505981 -2.042815 -1.604878 0.700958 -1.067948 1.531788 -1.036527 -0.652755 -1.403656 -0.245539 0.482576 -1.010201 0.372607 -0.121233 0.734800 -0.749090 0.794957 -0.594142 1.105284 -0.654466 0.628314 -1.834732 -1.211973
谢谢 0.349995 -0.902624 0.107730 0.325512 0.470446 -0.153686 0.623346 0.014627 -0.580182 0.581131 -1.317784 0.008032 -0.748803 -0.026715 0.627286 -0.517553 -0.047225 1.114098 -0.018157 -1.007281 0.795001 -0.322317 0.575994 -0.313127 -0.029596 -1.294741 1.181424 -1.105989 -1.931741 -1.325719 0.442786 0.794784 0.665781 1.056529 0.179716 -0.499077 0.527457 0.131674 -0.278590 0.745730 -0.063603 0.205988 0.112223 0.297353 -0.089203 0.829230 -0.811475 0.236579 0.104912 -0.848738
中 1.269623 -0.358358 -0.529745 -1.137741 -0.674403 -0.086494 0.451310 1.124449 -1.543719 -0.908618 0.009421 0.425389 -0.307601 0.038998 0.859225 1.140317 -0.910842 1.272787 0.925355 -0.024639 -0.326965 1.444999 0.152971 -1.826711 -1.213673 0.291371 0.542466 -0.285574 -0.120166 -0.296672 -1.526438 -1.107126 1.223847 0.615642 0.771073 0.098845 -0.730851 -0.415968 -0.524206 0.967945 0.762637 -0.762654 -0.236431 -0.302137 0.814099 -1.135152 0.221047 -0.672170 -0.455375 -0.697612
超 1.528207 -0.885432 0.127878 -0.826160 1.133670 0.370418 0.927341 0.673335 -0.665990 -0.413784 -1.020922 -0.216974 -0.733982 0.038314 0.451115 -0.274674 0.682138 0.068989 0.348940 0.697211 0.579167 0.000015 0.535807 0.201747 -0.338195 -0.062743 -0.740594 -0.356497 -1.060119 0.017773 0.372930 -0.767652 0.406374 -0.234005 -0.233104 0.277649 -0.103883 -0.321374 0.338129 0.323402 0.749061 0.102969 0.153989 1.002188 0.500945 -0.232282 -0.872885 0.009371 -0.025266 0.526713
款 -0.138973 -0.250682 0.140715 -0.713266 0.247769 0.619281 -0.153702 0.519545 -0.791046 -0.085873 -0.198895 -0.373577 -0.027881 0.566605 0.022952 -0.231396 0.116139 0.054160 0.617775 0.052730 -0.204175 0.605895 0.820798 -0.076251 -0.225924 0.064610 -0.442703 -0.182789 -0.483113 0.138856 0.016462 -0.026445 0.340696 -0.426785 0.017262 -0.280948 -0.431478 -0.238387 -0.551421 -0.282868 0.096746 -0.041389 -0.650296 0.427493 -0.184764 -0.777739 -0.385421 0.147293 -0.620762 0.096298
速度 0.160411 -1.653066 0.248146 0.230471 2.324732 -1.035036 0.551172 0.672049 -0.706716 0.232150 -1.635348 0.844317 -1.286866 -0.050074 0.259379 -0.244171 0.014506 0.207532 0.156466 -0.898912 0.642308 -0.963612 -0.413329 -0.896281 -0.302089 -0.015170 0.747373 -0.910304 -1.017731 -1.385544 0.577843 -0.243264 0.090273 0.300898 0.489081 -0.289478 -0.418890 -1.103002 0.882189 1.094058 0.079916 -0.258469 -0.110624 1.029322 0.261221 1.020387 -0.493590 -0.393383 -0.167894 -1.002470
高 -0.745616 -1.249605 0.041359 0.833129 1.956457 1.010405 0.107626 0.369985 0.110757 -0.223579 -0.664731 -0.276042 -0.563975 0.296184 0.944179 -1.318699 -1.031299 1.184933 0.296188 -0.908735 0.031818 0.507807 1.627071 0.388653 1.000026 -0.827024 -0.680778 -0.792925 -0.285587 -0.266341 -0.254932 -0.267016 0.163652 -0.260608 0.067735 -0.466716 -0.097246 -1.068501 0.188290 -0.111073 1.335679 -0.354665 -1.605206 -0.575690 0.329322 -1.827675 -0.266075 -0.490605 0.203794 0.753585
搭配 -0.361297 -0.251421 0.207860 -0.603165 0.438342 0.534649 -0.590692 1.269527 -1.111444 -0.088726 -0.433293 -0.193388 0.187134 0.496380 -0.042463 -0.062016 0.592827 0.074670 0.681275 -0.133745 0.241554 0.687905 1.086036 -0.260897 -0.204842 0.264744 -0.499847 -0.302460 -0.234194 0.469855 -0.046804 0.139008 0.449809 -0.416711 -0.363674 -0.534159 -0.144773 -0.479737 -0.518715 -0.602850 -0.036624 -0.540238 -0.246546 0.021491 -0.427377 -1.112661 -0.112777 0.046153 -0.436857 0.284594
东西 0.591299 -0.745527 0.043685 -0.226558 0.572770 0.180158 0.492897 0.035018 -0.335028 -0.138055 -0.399637 0.523130 -0.472133 0.228994 0.631082 0.000296 0.092131 0.230979 -0.039947 0.118171 0.186839 -0.006522 0.013778 0.047297 -0.231667 -0.300034 -0.340048 -0.062468 -1.234341 -0.420367 0.353957 -0.589233 0.105908 -0.126681 0.213196 -0.151697 -0.383217 -0.164745 0.171726 0.640989 0.398719 -0.176001 -0.164020 0.946245 0.438360 0.575327 -0.200511 -0.259433 -0.195894 -0.335552
试 -0.686250 -0.103842 0.070611 -0.529943 0.731315 -0.403536 0.035542 0.234349 -0.816033 0.195610 -0.025493 0.171399 -0.164379 0.929199 -0.491732 0.122312 0.230018 0.241039 -0.045680 -0.110398 0.530608 0.299441 0.119170 -0.569639 -1.134436 -0.526455 0.824167 0.046115 -0.385841 -0.254990 -0.149620 -0.315690 0.321908 -0.797675 -0.117694 -0.433158 -0.661053 -0.210821 0.067391 0.736037 -0.890813 -0.824024 -0.353794 0.090441 0.128829 0.108173 -0.499037 0.416723 -0.913676 -0.022552
性价比 1.529994 -0.689259 0.786423 0.410850 1.575706 0.460552 -0.386956 -0.400166 -0.606639 -0.753615 -1.276653 -0.336973 -0.550145 1.285337 0.824868 -1.165827 0.710038 -0.605551 0.186511 0.487019 -0.444255 1.819455 1.537242 0.312355 0.386074 1.027054 0.173053 -1.439068 -1.099540 0.784085 -0.103182 0.415382 -0.568068 0.186652 0.797658 -0.738095 -0.552738 1.004376 0.356563 0.444738 -0.563168 0.102885 -0.788935 1.165792 0.230363 0.237256 -0.701104 0.510530 0.156050 0.820247
包装 0.065861 -0.772116 -0.022120 -0.478957 0.931899 -0.290399 0.356693 0.224521 -0.756638 0.265959 -1.241138 0.438188 -0.573079 0.203718 0.345088 0.235266 -0.035301 0.496948 -0.253171 -0.006669 0.381488 -0.279684 -0.335261 -0.580446 -0.592713 0.032795 0.556344 -0.467720 -0.820606 -0.413609 0.116331 -0.037083 0.062215 0.073295 0.529219 -0.142324 -0.760190 -0.777639 0.620035 0.583747 0.073898 -0.342699 0.204017 0.539975 0.658897 0.070318 -0.549841 -0.010013 0.005087 0.017025
吊带 -0.391412 -1.144800 -0.333216 -0.974918 0.486359 0.160474 -0.918424 1.180961 -1.282353 0.245161 -1.567932 0.590157 0.275455 -0.090767 1.352148 -0.110774 -0.184630 0.441105 -0.182012 -0.574636 0.287208 -0.246231 0.354889 -0.594672 -0.044834 0.000216 -0.017302 -0.732722 -1.698216 -0.712637 1.064659 1.166498 0.613561 1.186931 0.609501 0.113596 0.620542 -0.713132 -0.107311 -0.741929 -0.012542 0.125461 -0.371081 0.840452 0.243020 -0.177561 0.208128 -0.418931 1.252472 -0.292450
评价 -0.585145 -0.464464 -0.189756 -0.714731 0.170902 -0.025681 -0.009893 0.483102 -0.239032 0.023483 -0.014135 0.470168 0.701655 0.973435 -0.019039 0.494806 -0.291892 0.483472 -0.247260 -0.417721 -0.008932 0.397645 -0.027404 0.636530 -0.378202 0.058628 -0.371232 0.161436 -0.809166 -0.108042 0.205367 -0.946612 0.020496 -0.725963 0.220037 -0.349627 -0.280148 -0.006976 0.401836 0.618199 -0.366689 0.068373 -0.564810 0.965791 -0.145508 0.266558 0.198280 0.051301 -0.598140 -0.628443
精细 0.050601 -0.319708 0.690032 -0.240163 2.002239 0.298754 1.162080 -0.026347 -1.487041 0.015674 -1.448715 -0.949585 -1.637933 0.809559 -0.302327 -0.449844 -0.213481 -0.160491 0.217562 0.268304 -0.349587 0.729250 0.599414 0.391731 -1.187100 0.262208 0.983400 -0.705298 -0.523955 0.971624 -0.216429 0.151392 -0.605219 0.109228 0.705837 0.440727 -0.626213 -0.743528 0.349987 1.343615 -0.062388 -0.406173 0.859102 0.850991 0.581598 -0.949114 -1.223851 -0.097801 -0.640120 0.414445
码数 -1.467433 0.283339 0.623564 0.579144 0.246411 -0.482898 0.481904 -0.132492 -0.623214 0.507759 -1.328622 -0.575421 -0.485559 0.627948 -1.114331 -0.863815 -0.486498 0.169968 1.220643 -0.269971 0.133990 0.643319 1.145937 -0.644325 -0.575241 -0.824744 1.348339 -0.072565 -0.833191 -0.844591 0.223352 0.534849 0.262014 -0.085698 0.172441 -0.216371 -0.232415 -0.017475 -0.872829 0.815117 -0.850152 -0.524337 -1.028832 -0.604759 -0.436555 0.365781 -0.489140 0.353248 -1.196208 -0.695885
显 -0.442446 -0.334203 0.434678 -0.890830 1.179823 0.384640 -0.707604 0.863197 -0.893394 -0.216405 0.029863 -0.472410 0.401453 0.448559 0.489213 -0.101987 0.892608 -0.387866 1.462421 -0.534241 0.673272 0.647676 0.828193 0.077382 -0.300525 0.323486 0.015092 -0.408659 -0.090415 0.741259 0.132672 -0.061045 0.850852 -0.338622 -0.001985 -0.620199 0.207720 -0.267627 -0.757943 -0.526511 -0.081908 -1.050413 -0.145185 0.341819 -0.259082 -1.739661 -0.583727 -0.018019 -0.514610 0.382546
店 0.567587 -1.210836 0.156621 0.453904 -0.111725 0.905443 1.355996 -0.463321 0.124216 0.495234 -0.630569 0.558208 -0.236583 0.222870 0.183708 -0.356536 -1.039876 0.709731 0.561481 -0.142602 -0.783864 0.690791 0.983853 1.447099 0.340634 -0.098199 -0.794735 -0.446499 -2.425472 -0.360331 0.854653 -1.110261 0.936502 -0.229009 0.206104 -0.767423 -0.062568 1.081721 -0.477008 1.109169 0.994101 0.171313 -0.280714 1.480348 0.437737 0.933247 0.576610 -0.566973 -0.700095 -0.649364
身上 -0.510155 -0.490134 -0.545196 -0.535441 0.348161 0.178249 0.076669 1.059928 -1.983564 0.271015 -0.483296 -0.371391 -0.605527 1.029487 -0.094183 0.056462 0.544968 0.752375 0.298438 0.223444 0.214753 1.222908 0.892093 -0.396217 -1.276305 -0.185788 -0.394199 -0.682106 0.779155 1.260019 -0.399308 0.061864 0.632551 -0.596168 -0.505237 0.010384 -0.500304 -0.440981 -0.294855 0.089608 -0.470782 -1.049813 0.808231 0.292576 0.494853 -0.699176 0.153258 -0.396031 -0.650404 0.614724
摸着 -0.006735 -0.370097 -0.012658 -0.914649 1.084808 -0.147462 -0.300373 1.170822 -1.553523 0.317890 -1.306922 0.351403 -0.422010 0.640100 -0.643129 0.119774 0.535321 0.276520 0.310286 0.417524 0.187512 0.204544 0.398364 -0.805398 -0.812705 0.030793 0.380896 -0.741148 0.020144 0.406865 0.358846 0.136167 0.464983 -0.118741 -0.132728 0.075684 -0.811206 -0.780683 0.574354 0.163771 0.129933 -0.356716 0.352567 0.352488 0.776784 -0.383712 -0.410629 0.363971 -0.548515 0.247680
厚实 0.009332 0.005057 0.042363 -0.780731 0.677631 0.329961 -0.016402 0.729913 -1.410845 0.037693 -1.037723 -0.194028 -0.535075 0.784462 -0.001477 0.169389 0.070969 0.501076 0.667305 0.351888 -0.285763 1.050185 0.567579 -0.247233 -0.791189 0.320227 0.235989 -0.670504 0.145110 0.625543 0.239394 0.026865 0.434896 -0.197482 0.230497 0.401333 -0.946998 -0.472497 0.124454 0.070733 -0.093319 -0.211172 0.232238 0.085020 0.557167 -1.072384 -0.597941 0.338401 -0.439115 0.035720
妈妈 0.353664 -0.229707 0.693039 -0.202458 0.181796 0.437521 -0.685015 0.846038 -0.585115 0.016551 0.552563 -0.166085 0.033807 0.699049 -0.048615 -0.198213 0.509806 0.008671 0.819136 0.023855 0.447216 0.016863 0.580770 0.013952 -0.568408 -0.867419 -0.237780 0.012735 -1.094746 -0.426396 -0.009271 -0.704399 0.998670 -0.879983 -0.610975 -0.782573 0.089668 0.084884 -0.526025 0.282953 -0.208685 0.278193 -0.476085 0.579503 -0.314914 0.553888 -0.381387 0.723102 -0.759193 -0.422770
斤 -1.857305 0.324305 0.031106 0.606436 -0.959043 0.003356 -0.048293 0.869116 -0.430811 0.505760 -0.179645 -0.337906 0.853609 1.441615 0.728164 -0.502236 -0.373054 0.336452 0.843538 -1.456077 -0.112828 1.840050 1.015907 0.105702 -0.177562 -0.174769 0.675965 0.222939 -1.325181 -0.660485 0.091937 -0.460911 -0.193831 -0.456602 0.311770 -1.821887 -0.008996 0.335027 -1.185861 0.316342 -0.956262 -0.670338 -2.039005 -0.293870 -1.344985 -0.251613 0.695967 -0.104243 -0.793859 -1.050097
想要 0.172606 -0.390034 0.190869 -0.706939 0.633854 0.549469 -0.098237 0.412788 -0.743871 -0.266995 0.076464 -0.477061 -0.590333 0.467600 -0.103117 0.009268 0.446958 0.239529 0.528426 0.106213 0.063596 0.358985 0.619116 -0.186072 -0.570212 -0.063292 -0.168510 -0.430676 -0.301667 -0.025161 -0.092762 0.069857 0.494198 -0.462725 -0.250908 -0.140834 -0.144972 -0.307915 -0.338511 0.099524 0.143626 -0.025898 -0.314597 0.364446 0.068965 -0.426969 -0.526420 0.521574 -0.886377 -0.010375
掉色 -0.416060 0.141658 -0.287559 -0.717045 0.979776 -0.031098 -0.258745 0.705151 -0.601741 0.292425 -0.809761 0.256483 0.593423 1.406158 -0.013668 0.510978 -0.219360 0.396364 0.007280 -0.063579 -0.103638 1.116169 -0.121748 0.626614 -0.053954 0.356290 -0.032062 -0.263628 -0.117083 0.856988 -0.145924 0.174305 -0.221928 -0.413295 0.467044 -0.036967 -0.163392 -0.136595 0.566342 0.722113 0.011696 -0.932861 -0.029908 0.655797 -0.097124 -0.771186 -0.102205 0.144061 -0.886169 -0.064249
第一 0.337341 -0.895692 -0.476048 -0.561678 0.604145 -0.108139 0.374632 0.377704 -0.007255 -0.456237 -0.466811 0.095882 0.982177 1.007619 -0.070548 0.036789 -0.509296 0.931463 -0.256078 -0.682746 -0.056438 0.435961 0.713927 1.495867 -0.248089 -0.314862 -0.588422 -0.295735 -1.097141 -0.271510 0.086112 -1.203679 -0.009371 -0.633588 0.331341 -0.326987 0.146716 0.809353 0.395669 0.837961 0.378026 0.904886 -0.540776 0.591479 -0.898777 1.128777 -0.054218 0.111920 -0.602620 -1.153734
买了 0.365026 -0.669773 -0.204896 -0.581001 0.881205 -0.222622 0.223032 0.676420 -0.278183 -0.528368 -0.079074 -0.108931 0.326165 0.754206 0.055692 -0.248068 0.090140 0.514711 -0.082081 -0.660119 -0.134042 0.331438 0.901125 1.073727 0.015693 -0.488038 -0.588156 -0.342129 -1.091069 -0.466970 0.207315 -0.740939 0.488073 -0.412616 -0.348717 -0.759499 0.215573 0.560023 -0.192993 0.712787 0.245986 0.801725 -0.379512 0.513460 -1.031793 0.955996 -0.209911 0.129262 -0.829078 -1.178056
物有所值 0.381435 -0.448914 0.182370 -0.278932 1.050809 0.107136 0.453866 0.034753 -0.523945 -0.100044 -0.594219 -0.118333 -0.700115 0.330348 0.088771 -0.156747 0.221244 0.141122 0.550760 0.137193 0.130581 0.089610 0.612496 -0.069386 -0.403082 -0.206990 -0.000532 -0.460309 -0.661504 -0.389745 0.214898 -0.048441 0.536041 0.023560 0.112534 0.132834 -0.087953 -0.017316 -0.151628 0.530472 0.228784 -0.051126 -0.086260 0.447754 0.242119 -0.002969 -0.507875 0.206097 -0.620175 -0.028563
皱 -0.312705 0.023687 -0.199169 -0.818718 0.496930 0.031403 -0.175370 1.035341 -0.853938 0.133330 -0.915919 0.218211 0.615940 1.284923 0.214696 0.583114 -0.106542 0.619207 0.220463 -0.036119 -0.203154 1.184591 -0.058587 0.527608 -0.224061 0.527705 -0.199626 -0.315003 -0.094730 0.838612 0.082182 -0.274148 0.066696 -0.439591 0.315768 -0.100105 -0.503492 -0.288207 0.359023 0.263035 0.005781 -0.777814 0.026011 0.335729 -0.032569 -0.946544 0.012966 -0.030557 -0.442820 -0.061681
美美哒 0.139504 -0.552296 0.229462 -0.598220 0.726240 0.190756 -0.136716 0.574067 -0.748688 -0.145683 -0.127002 -0.134223 -0.256402 0.473305 0.297764 -0.046864 0.396578 0.189586 0.684350 -0.240393 0.361846 0.218607 0.447892 0.011233 -0.544129 -0.140122 -0.140333 -0.384278 -0.306375 0.079494 0.313021 -0.067900 0.643772 -0.420681 -0.107704 -0.127155 0.046054 -0.317950 -0.314794 0.031350 -0.133888 -0.089863 -0.121473 0.522607 -0.093336 -0.354344 -0.450435 0.171222 -0.417724 -0.204066
建议 -1.014758 0.282871 0.099497 0.782372 -0.033847 0.332509 0.386898 -0.150950 -0.212762 0.663319 -0.307917 -0.590339 -0.108749 0.619578 -0.238985 -0.581875 -0.248530 0.320845 0.662420 -1.199785 0.330207 1.106019 0.588955 -0.338526 0.114095 -0.942799 1.184435 -0.702112 -0.920905 -1.420765 0.513445 0.355043 -0.405472 0.306293 0.913218 -0.715801 0.086113 -0.026623 -0.687229 0.562615 -0.622945 -0.348212 -1.309800 -0.089857 -0.458615 -0.095843 -0.159268 0.513678 -0.927905 -0.774234
凉快 -0.405369 -0.235719 0.043691 -0.781619 0.437261 0.381439 -0.718067 1.409882 -1.545293 0.199899 -0.661944 -0.120683 -0.023464 0.842286 -0.004092 0.298583 0.342869 0.367227 0.693916 -0.234056 0.319998 0.933694 0.560218 -0.296682 -0.575455 0.246997 0.054504 -0.539434 0.248108 0.682864 0.482176 0.018657 0.377429 -0.383304 -0.065997 0.089069 -0.357467 -0.755607 -0.042391 -0.409453 -0.350506 -0.194321 -0.009483 0.294614 -0.009630 -1.115899 -0.228695 0.224029 -0.209474 -0.162953
总体 -0.223127 -0.071517 -0.106772 -0.126468 0.528194 -0.000982 -0.008483 0.621511 -0.768324 -0.061394 -0.876731 0.203337 0.091445 0.728172 0.418949 0.260917 0.227331 0.467466 0.031219 -0.003673 -0.040411 0.667440 0.030148 -0.501196 -0.260050 0.226896 0.537017 -0.510609 -0.614762 0.314020 -0.346441 0.141445 0.125739 -0.151995 0.334117 -0.376871 -0.652373 -0.469995 0.030231 0.011848 0.022516 -0.738727 -0.096510 -0.332137 0.078874 -0.657757 -0.075765 -0.030086 -0.363780 0.015831
棒棒哒 0.060018 -0.548970 0.214102 -0.194119 0.938371 0.035046 0.084895 0.410541 -0.594138 -0.058024 -0.515509 0.044029 -0.379243 0.119150 0.139792 -0.241912 0.316594 0.201672 0.421736 -0.292504 0.254498 -0.157559 0.418937 -0.214416 -0.160877 -0.316524 0.120434 -0.495007 -0.700338 -0.555049 0.316603 0.277693 0.541411 0.199851 0.023585 -0.250342 0.151033 -0.189985 -0.206061 0.189529 0.006965 -0.186639 -0.098666 0.371975 -0.141770 -0.043307 -0.323418 -0.010988 -0.279355 -0.322083
配 -0.263812 -0.317136 -0.087500 -0.860937 0.148946 0.473758 -0.448661 1.340606 -0.933421 -0.026535 -0.344321 -0.178594 0.378938 0.504764 0.116333 0.145041 0.582203 0.201859 0.456009 -0.097798 0.236025 0.524294 0.689797 -0.192222 -0.086431 0.282461 -0.789337 -0.079140 -0.496438 0.320486 -0.024619 -0.087196 0.455032 -0.400524 -0.288690 -0.633313 -0.110098 -0.306676 -0.322207 -0.715778 -0.150874 -0.436221 -0.396178 0.277538 -0.605329 -0.795292 -0.046043 -0.191079 -0.311618 0.167152
夏天 -0.884558 -0.282800 -0.172177 -1.041040 0.131110 0.156022 -0.802960 1.798721 -1.673789 0.360211 -0.705406 0.166657 0.463777 0.888629 0.083218 0.190104 0.192790 0.257087 0.530885 -0.493492 0.250304 1.052177 0.699613 -0.341353 -0.558143 0.414119 -0.105455 -0.237072 0.070336 0.605049 0.470149 -0.075157 0.265859 -0.471580 -0.078970 -0.165282 -0.495534 -0.761732 -0.129679 -0.670881 -0.659716 -0.255043 -0.438383 0.250231 -0.259817 -1.133789 0.150697 -0.059027 -0.084456 -0.286336
赶紧 0.546597 -0.749670 0.476634 -0.541885 0.338633 1.065712 0.438271 0.507098 -0.083592 -0.220882 0.373582 -0.502815 -0.872062 0.516873 0.378425 -0.524862 0.740723 -0.184970 1.009850 -0.165768 0.580357 -0.007229 1.246503 -0.207028 0.449165 -0.312347 -0.974318 0.023032 -1.909069 -1.190684 -0.238266 -0.463076 0.333401 -0.213491 -0.252091 -1.087769 1.410030 -0.111501 -1.104625 0.668887 0.910848 -0.121688 -1.795727 1.382862 -1.022005 0.112402 -0.148737 0.045920 -1.142415 0.013596
扣子 -0.552234 -0.371338 -0.334878 -0.376609 -0.302348 0.182937 -0.043373 0.967330 -0.601932 0.250818 -0.850593 0.267796 0.571402 0.520691 0.881574 0.307191 -0.205983 0.494251 -0.114214 -0.331176 -0.145881 0.597609 -0.165522 -0.202257 0.177093 0.511728 -0.059183 -0.068595 -1.348305 -0.062436 0.009437 -0.157130 -0.096393 0.133167 0.500575 -0.878452 -0.389230 -0.499753 -0.003396 -0.049062 0.087622 -0.560474 -0.611971 0.352932 -0.345364 -0.648578 0.398249 -0.745551 0.240376 -0.260885
放心 0.490800 -0.202065 0.291221 0.020596 0.903769 1.429815 0.000361 -0.205803 0.011469 0.082403 0.147930 -0.713988 -0.732035 0.450116 0.177765 -0.318782 0.125851 -0.245249 0.783603 -0.102494 0.283995 0.451643 0.999586 0.162507 0.527789 -0.670493 -0.742163 -0.538982 -1.215750 -1.240524 0.338059 -0.233645 0.074792 -0.059007 0.559240 -0.198863 0.749570 0.416065 -0.340147 0.585194 0.848563 -0.112990 -0.917113 1.544660 0.024949 -0.063681 -0.004376 0.389942 -1.328726 0.218228
想到 0.759299 -0.737785 0.038109 -0.248566 0.521449 0.895757 1.095713 -0.145545 -0.518629 -0.102357 -0.575933 0.230436 -0.644823 0.184899 0.377070 -0.185826 0.041214 0.365356 0.403053 0.678190 0.004423 0.357819 0.370602 0.291200 -0.606221 0.144617 -0.792519 -0.279227 -1.222908 -0.059832 0.502690 -0.843722 0.564612 -0.417669 0.226799 0.248903 -1.091481 -0.023345 0.001555 0.349020 0.253067 -0.180681 -0.294132 0.920620 0.765455 0.109364 -0.292913 -0.254142 -0.171131 -0.002738
亲们 0.585933 -0.587764 0.304341 -0.460379 0.293760 0.599028 0.614382 0.112435 -0.012017 -0.224521 0.046056 -0.389431 -0.725660 0.521169 0.391757 -0.507853 0.420396 -0.074521 0.871503 -0.108518 0.235888 0.097851 0.938575 -0.051780 0.200400 -0.212374 -0.766934 -0.068652 -1.284012 -0.869448 -0.124402 -0.328581 0.136912 -0.018596 -0.075383 -0.659847 0.919966 0.094336 -0.810626 0.757355 0.731349 0.004919 -1.308030 1.083802 -0.770566 0.107631 -0.222866 0.191233 -0.918554 -0.103754
打开 0.210555 -0.790902 -0.064830 -1.268099 0.644181 0.022128 0.279247 0.164284 -0.735010 0.064296 -0.116785 0.236814 -0.354799 0.646428 0.201517 0.587494 -0.002130 0.539353 -0.562385 0.374485 0.415260 -0.230381 -0.479511 -0.669819 -1.112483 -0.294028 0.254062 0.015242 -1.061688 -0.364336 -0.291368 -0.685495 0.318077 -0.701201 0.346397 -0.338130 -1.021109 -0.421023 0.564687 0.804768 -0.225150 -0.527029 -0.223820 0.842550 0.837555 0.187341 -0.708655 0.197118 -0.506467 0.351309
背心 -0.307059 -0.890892 -0.364706 -0.808825 0.426424 0.136009 -0.705399 1.158600 -1.218636 0.183900 -1.266694 0.443751 0.139444 0.057944 0.888638 -0.081627 0.035697 0.434139 -0.144701 -0.455975 0.168333 -0.082012 0.469120 -0.487800 -0.056258 0.042851 -0.125135 -0.652225 -1.236252 -0.419678 0.687719 0.792977 0.588620 0.859094 0.291475 -0.133440 0.389066 -0.472968 -0.177814 -0.556311 -0.089738 -0.038842 -0.258474 0.616133 -0.033917 -0.129135 0.281484 -0.416619 0.820548 -0.221195
惊喜 0.567009 -0.771030 0.149720 -0.733118 0.562659 0.320332 0.529102 -0.026864 -0.725465 0.017801 -0.442135 0.102326 -0.554066 0.192578 0.384185 0.175949 0.138264 0.462895 -0.040684 0.580326 0.250465 0.183582 0.052479 -0.247301 -0.863240 -0.074409 -0.161889 -0.039852 -1.173582 -0.001836 -0.142953 -0.569006 0.343386 -0.603253 0.254170 -0.037458 -0.923303 -0.391432 0.186410 0.509299 0.149898 -0.247221 -0.211195 0.772236 1.011938 0.258328 -0.646875 -0.086435 -0.344435 0.146196
爱 0.197173 -0.492247 0.315915 -0.363128 0.586032 0.060323 0.031442 0.589835 -0.555319 0.003112 -0.657029 -0.112177 -0.288956 0.381057 0.167589 -0.233159 0.330712 0.245769 0.415897 -0.045420 0.240024 0.155998 0.527535 -0.031979 0.036477 -0.180698 -0.215239 -0.363371 -0.694341 -0.249056 -0.009476 -0.098728 0.366933 -0.076596 -0.076531 -0.376577 0.135326 -0.220087 -0.180584 0.244823 0.254901 -0.163221 -0.241943 0.438228 -0.288656 -0.032529 -0.322621 -0.036083 -0.450237 0.029588
尺寸 -1.207812 0.319210 0.318989 0.389241 0.375250 -0.440154 0.208114 0.096355 -0.750243 0.466918 -1.190909 -0.418095 -0.471655 0.715547 -0.664997 -0.685007 -0.340764 0.232931 0.711257 -0.362595 0.213181 0.671669 0.949125 -0.441638 -0.573295 -0.595160 1.175619 -0.184093 -0.481882 -0.502309 0.024439 0.519337 0.084083 -0.003544 0.099179 -0.085509 -0.226379 -0.081868 -0.427994 0.772665 -0.720003 -0.422098 -0.554225 -0.372439 -0.286862 0.212700 -0.370462 0.429128 -0.970582 -0.411307
划算 0.854518 -0.551773 0.613440 0.045431 0.513898 0.768236 0.679295 -0.100084 -0.404533 -0.124322 -0.634623 -0.057548 -0.764793 0.106158 0.266070 -0.385610 0.011457 0.332098 0.552013 0.364000 -0.198183 0.544119 0.707388 0.604231 -0.010071 -0.126589 -0.971398 -0.171340 -1.173757 -0.073198 0.352349 -0.748298 0.664404 -0.440889 0.138869 -0.005401 -0.566973 -0.079122 -0.517905 0.407796 0.627802 0.068063 -0.220888 0.859804 0.478956 0.284572 -0.339566 -0.311617 -0.416188 -0.031442
样式 0.172366 -0.223509 0.255207 -0.591337 0.886919 0.204942 -0.095175 0.644698 -0.973043 0.027175 -0.792388 -0.308913 -0.356095 0.372506 -0.342302 -0.120309 0.460655 0.244928 0.492208 0.242513 0.128304 0.277002 0.603276 -0.253421 -0.562353 -0.043431 0.181236 -0.571843 -0.299255 0.219173 0.089075 0.183484 0.575452 -0.226936 -0.223376 -0.124537 -0.443720 -0.367111 -0.080301 0.116028 0.072517 -0.204751 0.189037 0.128485 0.180204 -0.335767 -0.553367 0.411516 -0.670750 0.005182
钱 0.404810 -0.709108 -0.302813 -0.224806 -0.467383 1.131251 1.283261 0.533531 -0.668127 -0.303735 -0.598226 0.870478 -0.699729 0.864881 1.317368 0.411505 -0.441495 0.940045 -0.416133 0.402944 0.011678 0.457756 -0.540020 0.558540 0.116023 -0.293246 -1.206481 0.099799 -2.228115 -1.143319 0.472589 -1.846318 0.275984 0.043996 0.243959 -0.861296 -1.348405 0.106313 0.566680 0.192243 0.235586 -0.912572 -0.263247 1.467466 0.319958 0.715182 0.422433 -0.391400 0.008931 0.310936
礼物 -0.170471 -1.143243 0.145076 -0.037987 0.488281 -0.414371 -0.134572 0.482850 -0.581135 0.490068 -1.632924 0.284452 -0.267199 -0.110836 1.290581 -0.375900 -0.289517 0.845223 -0.015908 -0.900965 0.428206 -0.453408 0.380607 -0.481226 -0.164372 -0.535267 0.738166 -0.798057 -2.254939 -1.358317 0.571689 0.696204 0.729578 1.186186 0.497853 -0.509133 0.942775 -0.267028 -0.351404 0.401359 0.173503 -0.003519 -0.268812 0.533324 0.027022 0.815938 0.057299 -0.284937 0.726393 -0.536195
再来 1.059185 -0.694512 0.081330 -0.116135 0.783900 -0.463440 0.457572 -0.121867 -0.545930 0.243121 -0.985844 0.202552 -0.926665 0.138948 0.185888 -0.076087 -0.216321 0.568377 0.228898 -0.829486 -0.128390 0.656341 0.814811 0.724080 -0.207895 -0.368696 0.264772 -0.513826 -0.983431 -0.262054 0.381437 -0.495452 0.689448 0.068714 -0.116403 -0.503983 0.585811 0.854127 -0.558749 1.355831 0.390537 -0.226904 0.437814 0.429385 0.113741 0.578467 -0.118213 -0.084004 -0.438052 -0.432435
价位 0.959856 -0.599643 -0.011270 -0.159536 0.462955 0.736078 1.153031 -0.122450 -0.352683 -0.146418 -0.871950 -0.038309 -0.353017 0.285801 0.299370 -0.524007 -0.011754 0.165919 0.659369 0.758323 0.058716 0.638516 0.830252 0.646621 -0.499163 0.149683 -0.687727 -0.418069 -1.082668 0.350146 0.354633 -0.765008 0.390271 -0.453153 0.084047 0.299017 -0.800767 0.267046 0.024431 0.421656 0.326651 -0.092048 -0.395000 0.550432 0.536800 -0.128384 -0.454717 -0.084944 -0.205588 0.343873
下单 0.442471 -0.646217 0.123069 -0.400229 0.247606 0.352071 0.323592 0.366311 0.079902 -0.235116 0.430298 -0.265345 -0.337818 0.335735 0.465790 -0.261800 0.490794 0.061947 0.041433 -0.424990 0.317346 -0.060694 0.415546 0.057099 0.279431 -0.578732 -0.706111 -0.002371 -1.439227 -1.132993 0.091396 -0.670114 0.151728 -0.098072 -0.429938 -0.975495 0.491765 0.044612 -0.593641 0.590127 0.270045 0.218382 -1.266356 1.088532 -0.783580 0.667882 -0.041092 -0.058618 -0.901199 -0.490159
打底 -0.312223 -0.372437 -0.085342 -0.704899 0.194352 0.270928 -0.504012 1.133861 -1.173570 0.060566 -0.791692 0.163716 0.155479 0.503105 0.490051 0.045728 0.186602 0.292584 0.221973 -0.450748 0.157821 0.619195 0.588256 -0.206003 -0.193106 0.079349 -0.321604 -0.303261 -0.374790 0.292996 0.314714 0.157659 0.168822 0.061792 0.139691 -0.090604 -0.171202 -0.549613 -0.153157 -0.454836 -0.231910 -0.245455 -0.199467 0.397616 -0.206698 -0.692831 0.023179 -0.141970 0.190283 -0.168656
标准 -0.157711 0.500292 0.433937 0.630506 0.468805 -0.409968 0.710832 -0.157742 -0.792912 0.634263 -0.842693 -0.547900 -0.650830 0.830809 0.341813 -0.763404 0.507229 0.726462 0.910798 -0.711960 0.043007 1.182050 0.501763 -0.343941 -0.861092 -0.533300 1.594639 -1.165993 0.055641 -0.494370 -0.156300 0.158954 -0.170054 -0.093062 0.892278 -0.453349 -0.248183 -0.609714 -0.673551 0.638093 -0.448177 -0.059441 -0.588982 -0.755280 -0.105349 -0.242537 -0.791942 0.921812 -0.931506 -0.727112
回来 -0.140647 -0.340336 0.145459 -0.463306 0.148827 -0.123971 0.044028 0.335759 -0.347650 0.192595 0.002778 0.301927 0.217475 0.771060 -0.015272 0.288381 -0.068025 0.399771 0.151788 -0.271103 0.185452 0.234482 -0.197808 0.104994 -0.545273 -0.372295 0.236566 -0.041712 -0.699416 -0.397090 0.173208 -0.886189 0.436738 -0.674308 0.267655 -0.429140 -0.274528 0.015213 0.064653 0.569026 -0.382162 -0.229520 -0.426223 0.389609 -0.002451 0.169982 -0.262785 0.221800 -0.607125 -0.309396
稍微 -0.834292 0.050083 -0.013406 -0.368721 -0.250896 0.256813 -0.114694 0.823918 -0.975840 0.241232 -0.463225 -0.120405 0.454320 0.820836 0.322435 0.193477 -0.078915 0.462042 0.470245 -0.374617 -0.306093 1.185960 0.046551 -0.522124 -0.434908 0.475328 0.609485 -0.306834 -0.561808 0.194360 -0.021851 0.252141 0.049276 -0.337793 0.549415 -0.654453 -0.763892 -0.629941 -0.461230 -0.261926 -0.455547 -0.794090 -0.777265 -0.275342 -0.107838 -1.145329 0.014844 -0.024458 -0.404569 -0.397263
百 -0.028170 -0.445826 -0.286816 -1.595764 0.459332 0.615492 -0.219770 1.579313 -1.655111 -0.546844 -0.902288 -0.525287 -0.551501 1.014649 0.099205 -0.325223 1.300756 -0.083264 0.709224 -0.120819 -0.168204 0.716062 0.794113 -0.281579 0.539587 -0.063643 -1.148003 -0.620019 0.055618 0.669676 -0.373395 -0.001449 0.842544 0.178547 -0.026717 -0.465954 0.064269 -0.513250 -0.964505 -0.462744 -0.383228 -0.657166 -0.513536 0.792958 -1.460328 -0.907104 -0.192865 -0.517654 -0.137277 1.018996
样子 0.347389 -0.314204 0.296077 -0.574989 0.737686 0.106809 -0.147198 0.772012 -0.983248 0.041475 -0.670919 -0.263520 -0.378843 0.509211 0.030902 0.025833 0.551909 0.318391 0.526190 0.193135 0.303814 0.261767 0.292062 -0.401961 -0.580398 -0.104776 0.249248 -0.571493 -0.241931 0.316228 -0.134949 0.063852 0.553564 -0.264210 -0.202454 -0.147538 -0.336910 -0.500283 -0.007780 0.079581 0.086100 -0.213417 0.131236 0.103132 0.180710 -0.319748 -0.655238 0.378688 -0.549298 0.086920
领子 -0.029774 -0.244057 0.051305 -0.679821 0.185907 0.448075 -0.168193 0.863925 -0.891865 -0.027562 -0.492844 -0.077352 0.241888 0.635885 0.372169 0.138786 0.323704 0.167479 0.390481 0.223837 -0.046368 0.647429 0.293469 -0.236345 -0.211931 0.345929 -0.276213 -0.227805 -0.740046 0.320256 -0.076099 -0.067681 0.338025 -0.279299 0.077945 -0.537646 -0.538114 -0.456216 -0.232777 -0.213458 0.168883 -0.530601 -0.381777 0.383964 0.002631 -0.910137 -0.137070 -0.204289 -0.270222 0.281066
很快 -0.126510 -1.057588 0.232237 0.169609 1.194628 -0.648083 0.419035 0.337839 -0.677145 0.560721 -0.949707 0.342489 -0.925253 0.083518 -0.142947 -0.142133 -0.244224 0.365538 -0.014567 -0.593091 0.572703 -0.350100 -0.295426 -0.683023 -0.467662 -0.306769 0.862270 -0.546797 -0.828493 -0.903991 0.313091 -0.032259 0.046828 -0.036953 0.361219 -0.288664 -0.462880 -0.714701 0.465524 0.858499 -0.344026 -0.178396 -0.194086 0.580517 0.328336 0.981653 -0.487940 -0.045487 -0.309290 -0.810526
设计 0.264698 -0.564629 -0.013439 -0.978026 0.489813 0.477513 -0.374233 1.206201 -1.158520 -0.198264 -0.586232 -0.344280 0.283078 0.285253 0.542194 0.131228 0.696832 0.137850 0.776153 0.140679 0.329543 0.363019 0.428750 -0.458467 -0.276806 0.488036 -0.291149 -0.582656 -0.675248 0.244592 0.018614 0.440945 0.480433 -0.097257 -0.063164 -0.590654 -0.099499 -0.780404 -0.320059 -0.621730 0.480865 -0.566199 -0.225989 0.342006 0.011849 -1.406614 -0.231127 -0.264598 -0.092334 0.413204
气质 0.023585 -0.687711 0.263202 -0.528610 0.955011 0.317733 -0.141262 0.839216 -0.810789 -0.431069 -0.142887 -0.260255 -0.075214 0.386906 0.446307 -0.195053 0.525650 -0.042905 1.023760 -0.275810 0.397024 0.289242 0.764371 0.045280 -0.267751 -0.045580 -0.225465 -0.383812 -0.222517 0.235316 0.262836 0.117723 0.743669 -0.286429 -0.228506 -0.364452 0.281172 -0.249581 -0.583786 -0.144081 0.097423 -0.221516 -0.156599 0.377392 -0.313253 -0.982544 -0.180449 -0.103899 -0.380275 -0.109785
入手 0.604977 -0.572341 0.109788 -0.754073 0.352381 0.455449 0.443369 0.223012 -0.274307 -0.695595 0.109627 -0.300628 -0.298508 0.310810 0.489840 -0.679823 0.579378 0.105076 0.419511 -0.091946 -0.314102 0.245084 1.069978 0.382829 0.001587 -0.226382 -0.893161 -0.157337 -1.012346 -0.758490 0.120007 -0.139062 0.338594 0.070257 -0.470673 -0.526857 0.153480 0.178130 -0.796252 0.318291 0.411227 0.496668 -1.041537 0.608098 -0.685572 -0.073766 -0.409177 0.186975 -0.845669 -0.532479
偏小 -0.930258 0.470152 0.113649 0.228822 -0.442640 -0.152921 0.367360 0.381862 -0.695413 0.593232 -0.277975 -0.277687 0.307979 1.026736 0.259693 -0.318915 -0.036914 0.632254 0.752710 -0.714261 -0.267885 1.318420 0.187954 -0.316574 -0.622534 -0.160480 1.023140 -0.393054 -0.524925 -0.635276 0.051227 -0.110016 0.051954 -0.280514 0.661736 -0.939280 -0.610512 -0.318060 -0.775797 0.263247 -0.795407 -0.502705 -1.155937 -0.673771 -0.389630 -0.547328 -0.145153 0.468294 -0.686030 -0.708742
物超所值 0.467356 -0.568614 0.220575 -0.316385 0.889938 0.153889 0.428003 0.108716 -0.575846 -0.125485 -0.675522 0.031723 -0.631527 0.212402 0.109987 -0.177009 0.169325 0.236671 0.434173 0.131652 0.119730 0.059566 0.505464 -0.014972 -0.397552 -0.141532 -0.117398 -0.401884 -0.746937 -0.214718 0.173735 -0.216965 0.508649 -0.050284 0.076326 -0.013684 -0.248475 -0.186668 -0.105005 0.612008 0.334287 -0.023423 -0.028438 0.600601 0.320546 0.111022 -0.406654 0.100808 -0.519164 -0.119447
差 -0.036926 -0.419215 -0.007941 -0.378627 0.210642 0.346637 0.476321 0.413120 -0.532801 0.009932 -0.693435 0.062542 0.014588 0.414169 0.535648 0.254204 -0.165901 0.503543 0.142235 0.049931 -0.306399 0.360937 -0.248660 0.022710 -0.189770 0.276824 -0.093059 -0.275980 -1.033900 -0.083472 0.125899 -0.146866 0.113572 0.020045 0.455719 -0.271159 -0.703042 -0.272571 0.122615 0.145438 0.085093 -0.452374 -0.154747 0.472021 0.159216 -0.309265 -0.101461 -0.372119 -0.048783 -0.301515
亲 0.440586 -0.528705 0.331259 -0.471995 0.271172 0.491769 0.317784 0.073836 -0.201981 -0.099686 0.025333 -0.321865 -0.640018 0.391068 0.307437 -0.432894 0.259906 -0.000102 0.625720 0.024708 0.235076 -0.022125 0.742414 -0.180827 -0.092641 -0.253740 -0.474208 -0.007490 -1.177066 -0.710759 -0.169592 -0.311899 0.275119 -0.214966 -0.086905 -0.564674 0.588302 -0.040997 -0.663163 0.614348 0.512126 0.098664 -1.114151 0.948354 -0.387771 0.186468 -0.240251 0.250413 -0.846109 -0.103282
身高 -1.438610 0.303889 -0.147563 0.101483 -0.480253 -0.035318 0.204542 0.799537 -0.347784 0.175201 -0.313379 -0.159239 0.680019 0.950456 0.758473 -0.163810 -0.175236 0.289221 0.441810 -1.059427 -0.143019 1.047185 0.629795 -0.038079 -0.257617 -0.046490 0.497335 0.037626 -1.157066 -0.648830 -0.016505 -0.222952 -0.157696 -0.167421 0.240954 -1.437364 -0.179480 0.149640 -0.713992 0.305978 -0.341182 -0.799452 -1.258612 -0.358016 -0.862493 -0.488657 0.582989 -0.133357 -0.579750 -0.615528
洗过 -0.595886 0.044918 -0.450076 -0.754213 0.459531 -0.087124 -0.119979 0.838232 -0.671431 0.204361 -0.910625 0.200292 0.620494 1.508281 -0.054904 0.480966 -0.117263 0.382136 0.053053 -0.079834 -0.120087 1.134484 0.183330 0.352530 -0.411653 0.342235 -0.021891 -0.291076 -0.097977 0.922673 -0.246830 -0.174951 -0.195496 -0.607729 0.358914 -0.225540 -0.209004 -0.254871 0.364654 0.578565 -0.058539 -0.721262 -0.181583 0.360550 -0.266178 -0.679151 0.083239 0.120870 -0.760682 -0.051035
块 0.334068 -0.858961 -0.339780 0.031733 -0.201849 1.012644 1.123626 0.285050 -0.333580 -0.200573 -0.218816 0.610915 -0.727186 0.923972 1.132381 0.431984 -0.547945 0.415702 -0.188683 0.599606 -0.060353 0.610568 -0.560575 0.290209 0.210533 0.174119 -1.408559 0.430384 -2.121215 -0.658236 0.539926 -1.442716 0.371066 -0.155891 0.531822 -0.705307 -1.157849 0.051006 0.047841 0.604559 0.582792 -0.910145 -0.513412 1.411974 0.188866 0.421561 0.547935 -0.721544 0.323123 0.240661
体重 -2.153868 0.319206 -0.115025 0.529654 -1.098954 -0.007342 0.176938 1.067900 -0.396750 0.497652 -0.401911 -0.272681 0.885309 1.337625 1.098207 -0.346648 -0.437179 0.499925 0.656490 -1.647704 -0.166963 1.522945 0.700224 -0.100610 -0.157004 -0.293980 0.762879 0.385797 -1.549227 -0.890333 -0.020212 -0.303772 -0.153904 -0.225870 0.418551 -1.929064 -0.122211 0.227267 -1.173004 0.435471 -0.698735 -1.090727 -1.971467 -0.473646 -1.434749 -0.510943 0.713799 -0.455986 -0.713958 -0.889635
厚 -0.477861 -0.042294 -0.160727 -0.979551 0.196876 0.333064 -0.211939 1.081436 -1.446241 0.024849 -0.743408 -0.146806 0.030008 0.910530 0.038530 0.374826 0.112420 0.554442 0.545307 0.084721 -0.199831 1.096063 0.385285 -0.491422 -0.720994 0.394693 0.318968 -0.476606 -0.036415 0.511948 0.150747 0.074183 0.313976 -0.244011 0.221087 -0.015562 -0.935469 -0.658484 -0.007458 -0.291469 -0.203136 -0.383865 -0.165689 -0.050653 0.218231 -1.294678 -0.314755 0.240772 -0.411803 -0.169652
穿在 -0.263113 -0.291351 -0.025628 -0.906351 0.543052 0.069589 -0.080902 1.211040 -1.592924 -0.602127 -0.928968 0.283796 -0.391106 1.121806 -0.576664 0.380254 0.556733 0.264390 0.888358 0.451181 0.049723 0.330017 0.800962 -0.510542 -1.320053 -0.283524 0.102682 -0.386242 0.425560 0.489597 0.648173 -0.668584 0.528242 -0.022124 -0.881215 0.068246 -0.889009 -0.591073 0.072496 0.142486 -0.539205 -0.994392 -0.062372 -0.103746 0.768612 -1.386670 -0.773829 0.231281 -0.755040 0.346531
准 -0.505384 0.373416 0.397026 0.567896 0.393958 -0.451412 0.606108 -0.113403 -0.631954 0.710346 -0.655153 -0.543432 -0.339136 0.735309 0.222357 -0.778701 0.150491 0.597502 1.081453 -0.894633 0.139772 1.138472 0.636966 -0.273922 -0.820017 -0.510856 1.487540 -0.943658 -0.215061 -0.818167 0.106167 0.173784 -0.067233 -0.131872 0.849646 -0.421246 -0.079438 -0.354737 -0.729625 0.640031 -0.686345 -0.049994 -0.889032 -0.652306 -0.241065 -0.161701 -0.650697 0.731135 -0.901801 -0.961902
美 0.246378 -0.543887 0.138061 -0.719247 0.550255 0.225576 -0.027301 0.650124 -0.674856 -0.134625 -0.360424 -0.148688 -0.117489 0.424037 0.297791 0.045358 0.401530 0.187130 0.528895 0.045762 0.269338 0.179489 0.312314 -0.129830 -0.378652 0.026935 -0.288642 -0.325512 -0.557695 -0.090548 0.208288 -0.268528 0.535146 -0.292838 -0.010963 -0.244682 -0.227998 -0.359179 -0.130589 -0.000787 0.132278 -0.224488 -0.243608 0.454498 0.094601 -0.501256 -0.465933 0.051242 -0.237631 0.209160
实物 0.101667 -0.267362 0.308834 -0.518619 0.411634 0.077489 0.067147 0.357903 -0.633420 0.041863 -0.720756 -0.525186 -0.147404 0.444975 0.587824 0.184356 0.004536 0.533244 0.138169 -0.029435 0.170227 0.045640 -0.512883 -0.764585 -0.599695 -0.092268 0.825812 -0.442533 -1.274634 -0.131920 -0.662472 0.748559 0.312659 -0.290704 0.449452 -0.401974 -0.870329 -0.570915 -0.012416 0.277061 0.031822 -0.884491 -0.114881 -0.009578 0.487195 -0.264165 -0.846828 0.232190 -0.586996 0.221519
软 -0.012118 -0.176007 0.042621 -0.773695 0.805409 0.060461 -0.056134 0.827427 -1.240101 -0.029929 -1.023816 -0.064893 -0.450778 0.797723 0.015488 0.270078 0.420436 0.489562 0.624585 0.323363 0.015541 0.585284 0.247214 -0.350186 -0.704175 0.098538 0.316696 -0.582367 0.113443 0.480998 0.260473 0.033716 0.387653 -0.122510 0.118399 0.278793 -0.662540 -0.578801 0.335221 0.159951 -0.037699 -0.376590 0.331816 0.149052 0.379342 -0.809224 -0.609903 0.314921 -0.454962 -0.021021
大方 0.276778 -0.182042 0.202791 -0.660584 0.661640 0.437565 -0.281733 1.116074 -1.248527 -0.106952 -0.764327 -0.491285 -0.552605 0.740093 0.018804 -0.123504 0.644183 0.075245 0.771157 0.283391 0.228177 0.761713 0.922377 -0.127863 -0.498315 0.270912 -0.246830 -0.477217 -0.025263 0.739559 -0.235112 0.018114 0.471913 -0.374326 -0.427442 0.008205 -0.186116 -0.364388 -0.156179 0.090016 0.314106 -0.193893 0.015110 0.357563 -0.004851 -0.753507 -0.487462 0.229363 -0.688377 0.441407
女儿 0.409432 -0.291074 0.500011 -0.346551 0.451219 0.193518 -0.197555 0.470162 -0.662617 0.002774 -0.080896 -0.170448 -0.457262 0.636009 -0.164202 -0.219066 0.301811 0.152583 0.450715 0.050663 0.334243 0.218340 0.513479 0.175740 -0.530558 -0.645473 -0.052432 -0.168271 -0.683646 -0.127177 -0.017642 -0.525453 0.617365 -0.617644 -0.492726 -0.414195 -0.022057 0.076438 -0.197737 0.577000 -0.131043 0.200018 -0.117110 0.612351 -0.031797 0.557099 -0.512665 0.595990 -0.807375 -0.189079
超值 0.557006 -0.438981 0.347809 -0.171553 0.528797 0.460146 0.606394 -0.082548 -0.383989 -0.019382 -0.719670 -0.047433 -0.579466 0.197623 0.299038 -0.245880 -0.119387 0.261773 0.454473 0.293221 -0.150308 0.376555 0.553349 0.351704 -0.064645 -0.022167 -0.594934 -0.202354 -1.005338 -0.109886 0.168280 -0.378469 0.520235 -0.181034 0.296386 0.015948 -0.307725 -0.053516 -0.268169 0.455716 0.556279 -0.098172 -0.174417 0.793037 0.433347 0.103792 -0.258990 -0.171236 -0.404866 0.048424
慢 -0.145483 -1.357701 0.169716 -0.044270 1.019295 -0.579108 0.530147 0.506062 -0.460159 0.334933 -0.916156 0.691492 -0.396417 -0.067392 0.246362 0.103902 -0.355235 0.380014 -0.112126 -0.738489 0.253955 -0.376187 -0.554482 -0.567438 -0.200079 0.182312 0.510539 -0.503632 -1.301171 -1.021514 0.488899 -0.340810 0.069264 -0.048833 0.574779 -0.431831 -0.759323 -0.960309 0.375540 0.564758 -0.083859 -0.282805 -0.379224 0.623999 0.346007 0.612021 -0.180415 -0.542529 0.012521 -0.890854
贵 0.605229 -0.281930 0.804677 -0.096181 0.251073 0.506962 0.773072 -0.104089 -0.438881 -0.164961 -0.731767 -0.096333 -0.788171 0.144970 0.394336 -0.232452 0.083334 0.643298 0.485576 0.134304 -0.788871 0.949926 0.719148 0.652467 0.250516 0.135909 -0.994591 0.085279 -0.732262 0.180532 0.308885 -0.461934 0.825539 -0.328829 0.233711 0.121630 -0.632685 -0.256096 -0.926707 0.277843 0.711077 -0.092166 -0.035051 0.583369 0.355196 -0.050442 -0.271922 -0.540278 -0.409041 -0.192213
生意 -0.701835 -1.077567 -0.317893 0.760439 0.060490 -0.310866 0.611429 0.707371 -0.741987 0.875173 -1.952028 0.669369 -0.054093 0.193158 1.857556 -0.234246 -0.703479 1.544132 -0.058972 -1.524641 0.976887 -0.197040 0.515035 -0.130113 0.561743 -0.850091 0.878738 -0.904649 -3.526513 -1.426400 0.153165 0.239022 0.654825 1.260422 0.580181 -1.273141 0.402641 0.353831 0.280389 1.133820 0.444188 -0.613024 -0.317448 0.725074 -0.379180 0.783175 0.458396 -0.573203 0.208337 -1.403081
值了 0.814120 -0.467680 0.674808 -0.002035 0.393769 0.787348 0.946907 -0.292504 -0.429087 -0.090821 -0.772849 0.007431 -0.875305 0.250735 0.506766 -0.203500 -0.067495 0.475670 0.506895 0.536534 -0.345069 0.728125 0.533799 0.500636 -0.052490 0.068068 -1.052386 -0.041200 -1.147828 0.062234 0.302305 -0.863514 0.664384 -0.511759 0.431482 0.181544 -0.900842 -0.308132 -0.601720 0.380736 0.700820 -0.268498 -0.206699 0.840552 0.703303 -0.006108 -0.356936 -0.430240 -0.335473 0.132349
质感 0.121634 -0.303272 -0.045122 -0.617607 0.798896 0.044099 0.048987 0.596390 -0.986680 -0.141315 -0.768730 0.026215 -0.319619 0.563763 0.171025 0.140069 0.179449 0.305778 0.434606 0.111301 0.075650 0.423634 0.412392 -0.375309 -0.571955 0.105531 0.223963 -0.511761 -0.207137 0.242557 0.076736 0.085831 0.420941 -0.102843 0.148009 0.159209 -0.473660 -0.424337 0.030603 0.232252 0.099296 -0.268666 0.078130 0.137750 0.315239 -0.681745 -0.477967 0.199741 -0.420849 0.034747
整体 -0.188746 -0.260961 -0.075309 -0.301945 0.506752 0.208877 0.036715 0.617306 -0.844229 -0.160116 -0.619166 0.200865 -0.037499 0.551783 0.360714 0.207049 0.183077 0.405270 0.107571 -0.098785 -0.050673 0.572242 0.175399 -0.474067 -0.267335 0.222640 0.249578 -0.452117 -0.628920 0.108916 -0.034415 0.142947 0.258330 -0.073389 0.252451 -0.336405 -0.640264 -0.485463 -0.135595 -0.059548 -0.019091 -0.641408 -0.180696 -0.028017 0.115208 -0.761819 -0.078458 -0.072352 -0.270242 -0.008758
开心 0.529925 -0.834225 -0.256282 -0.296740 1.013286 -0.044836 0.422962 0.392105 -0.420639 0.059261 -0.801512 0.081962 -0.295424 0.316292 0.382346 0.228595 -0.384435 0.388266 0.053470 -0.207364 0.440912 0.175909 0.280311 0.498902 -0.165865 -0.049294 -0.117279 -0.436902 -1.184268 0.004577 0.026239 -0.455811 0.519363 -0.198872 0.341807 0.120238 0.285127 0.195053 0.239899 0.797424 0.271177 0.213342 -0.226413 0.673146 0.102696 0.428199 -0.263154 -0.255245 -0.371562 -0.225767
偏大 -0.805874 0.231956 0.100478 0.025261 -0.264523 -0.103502 0.144832 0.479751 -0.649363 0.439052 -0.295369 -0.179272 0.352558 0.894502 0.203405 -0.169012 -0.022468 0.506317 0.726880 -0.627592 -0.137600 1.075159 0.185604 -0.330775 -0.556618 -0.113178 0.837963 -0.369347 -0.551174 -0.496211 0.087681 -0.084844 0.127754 -0.322540 0.588490 -0.787069 -0.491416 -0.335275 -0.611581 0.180432 -0.617173 -0.375850 -1.035397 -0.428571 -0.281649 -0.506031 -0.168279 0.387808 -0.627443 -0.659265
确实 -0.019249 -0.150123 0.110042 -0.332053 0.620098 0.160355 0.181680 0.266166 -0.720179 -0.031452 -0.581085 0.065174 -0.405045 0.610366 0.064488 -0.008511 0.070010 0.261834 0.299222 0.083514 -0.020302 0.457342 0.235394 -0.163435 -0.421917 -0.222864 0.183930 -0.432553 -0.275246 -0.007368 0.199425 -0.154321 0.279834 -0.244351 0.273039 0.118378 -0.647850 -0.290014 0.094277 0.336756 -0.138455 -0.229431 -0.077857 0.313019 0.377278 -0.272024 -0.457986 0.241943 -0.581710 -0.075841
袖口 -0.177827 -0.302339 0.080442 -0.813602 0.275389 0.422762 -0.403170 1.082702 -1.049474 -0.076470 -0.509279 -0.162618 0.358066 0.466294 0.317545 0.193868 0.380911 0.153130 0.493284 0.146217 0.076915 0.462069 0.333801 -0.402529 -0.242225 0.354893 -0.103249 -0.286917 -0.712234 0.299347 -0.064494 0.237562 0.373813 -0.161985 0.042003 -0.588085 -0.227407 -0.658864 -0.323839 -0.449782 0.185724 -0.555153 -0.282030 0.225983 -0.086584 -1.123513 -0.053420 -0.279017 -0.211395 0.205272
力 -0.169771 -1.171383 0.340760 0.279502 1.250043 -0.599361 0.421523 0.394751 -0.623801 0.556024 -1.061150 0.349612 -0.916108 0.070987 -0.129255 -0.105366 -0.205044 0.467140 0.032546 -0.698648 0.622857 -0.381099 -0.261011 -0.595589 -0.275106 -0.287460 0.839931 -0.668138 -0.947642 -0.975558 0.326734 -0.074343 0.194713 0.027095 0.324790 -0.407359 -0.348326 -0.748406 0.405704 0.778625 -0.204978 -0.277800 -0.058276 0.565099 0.237893 0.917452 -0.375313 -0.129368 -0.276813 -0.699402
犹豫 0.457193 -0.569323 0.239863 -0.323987 0.153668 0.809991 0.524050 0.161038 -0.074789 -0.117278 0.201784 -0.377871 -0.444308 0.299102 0.422786 -0.375098 0.260891 0.065447 0.518358 -0.154281 0.159244 0.240340 0.712842 0.092698 0.261856 -0.382262 -0.689326 -0.111440 -1.563092 -0.905336 0.097139 -0.424694 0.337895 -0.129362 -0.036008 -0.839350 0.467347 0.064115 -0.805680 0.490812 0.537192 0.036418 -1.266604 1.052013 -0.446588 0.221395 -0.104787 -0.011501 -0.944856 -0.225929
